-0.42421296	-0.42421296	-0.42421296	-0.42421296	-0.42421296	-0.42421296	-0.42421296	-0.42421296	-0.42421296	-0.42421296	-0.42421296	-0.42421296	-0.42421296	-0.42421296	-0.42421296	-0.42421296	-0.42421296	-0.42421296	-0.42421296	-0.42421296	-0.42421296	-0.42421296	-0.42421296	-0.42421296	-0.42421296	-0.42421296	-0.42421296	-0.42421296	-0.42421296	-0.42421296	-0.42421296	-0.42421296	-0.42421296	-0.42421296	-0.42421296	-0.42421296	-0.42421296	-0.42421296	-0.42421296	-0.42421296	-0.42421296	-0.42421296	-0.42421296	-0.42421296	-0.42421296	-0.42421296	-0.42421296	-0.42421296	-0.42421296	-0.42421296	-0.42421296	-0.42421296	-0.42421296	-0.42421296	-0.42421296	-0.42421296	-0.42421296	-0.42421296	-0.42421296	-0.42421296	-0.42421296	-0.42421296	-0.42421296	-0.42421296	-0.42421296	-0.42421296	-0.42421296	-0.42421296	-0.42421296	-0.42421296	-0.42421296	-0.42421296	-0.42421296	-0.42421296	-0.42421296	-0.42421296	-0.42421296	-0.42421296	-0.42421296	-0.42421296	-0.42421296	-0.42421296	-0.42421296	-0.42421296	-0.42421296	-0.42421296	-0.42421296	-0.42421296	-0.42421296	-0.42421296	-0.42421296	-0.42421296	-0.42421296	-0.42421296	-0.42421296	-0.42421296	-0.42421296	-0.42421296	-0.42421296	-0.42421296	-0.42421296	-0.42421296	-0.42421296	-0.42421296	-0.42421296	-0.42421296	-0.42421296	-0.42421296	-0.42421296	-0.42421296	-0.42421296	-0.42421296	-0.42421296	-0.42421296	-0.42421296	-0.42421296	-0.42421296	-0.42421296	-0.42421296	-0.42421296	-0.42421296	-0.42421296	-0.42421296	-0.42421296	-0.42421296	-0.42421296	-0.42421296	-0.42421296	-0.42421296	-0.42421296	-0.42421296	-0.42421296	-0.42421296	-0.42421296	-0.42421296	-0.42421296	-0.42421296	-0.39254153	-0.3201497	0.03519673	0.31536707	0.47685647	0.7991393	0.98464346	0.98464346	0.98464346	0.99230033	0.9237368	0.43648416	-0.20494923	-0.40159053	-0.42421296	-0.42421296	-0.42421296	-0.42421296	-0.42421296	-0.42421296	-0.42421296	-0.42421296	-0.42421296	-0.42421296	-0.42421296	-0.42421296	-0.42421296	-0.42421296	-0.42421296	-0.413026	-0.328254	0.17988096	0.3467402	0.65962595	1.300065	1.7420728	1.9968365	2.4751892	2.653832	2.6120675	2.6769516	2.6608922	2.6249945	1.9306595	0.7126271	-0.11669685	-0.4055681	-0.42297	-0.42421296	-0.42421296	-0.42421296	-0.42421296	-0.42421296	-0.42421296	-0.42421296	-0.42421296	-0.42421296	-0.42421296	-0.42421296	-0.42421296	-0.42421296	-0.38438752	-0.083434366	1.7138321	2.052274	2.5700047	2.7416866	2.6752114	2.572938	2.337764	1.8650295	1.7167655	1.9446807	1.8728355	2.3597403	2.783302	2.2184868	0.7302279	-0.33993813	-0.41859463	-0.42421296	-0.42421296	-0.42421296	-0.42421296	-0.42421296	-0.42421296	-0.42421296	-0.42421296	-0.42421296	-0.42421296	-0.42421296	-0.42421296	-0.42421296	-0.36827832	0.054289076	2.576866	2.762221	2.6753604	2.4089131	2.030944	1.4954633	0.6847841	-0.2116614	-0.41004288	-0.11396223	-0.043459762	1.5463761	2.783302	2.6672065	1.9158431	-0.24522215	-0.41228023	-0.42421296	-0.42421296	-0.42421296	-0.42421296	-0.42421296	-0.42421296	-0.42421296	-0.42421296	-0.42421296	-0.42421296	-0.42421296	-0.42421296	-0.42421296	-0.38707235	-0.062651575	2.226044	2.467085	1.1641811	0.2747461	-0.093477756	-0.29623455	-0.3502798	-0.41004288	-0.4232683	-0.40352958	0.56491	2.0043938	2.783302	2.4340212	1.2761499	-0.41228023	-0.42341745	-0.42421296	-0.42421296	-0.42421296	-0.42421296	-0.42421296	-0.42421296	-0.42421296	-0.42421296	-0.42421296	-0.42421296	-0.42421296	-0.42421296	-0.42421296	-0.41750082	-0.34829104	0.21344176	0.27748066	-0.09491963	-0.32174072	-0.39065218	-0.42421296	-0.42421296	-0.42421296	-0.42421296	0.021126084	1.6683882	2.6026704	2.783302	2.2493129	0.79352105	-0.42421296	-0.42421296	-0.42421296	-0.42421296	-0.42421296	-0.42421296	-0.42421296	-0.42421296	-0.42421296	-0.42421296	-0.42421296	-0.42421296	-0.42421296	-0.42421296	-0.42421296	-0.42421296	-0.420484	-0.36827835	-0.36131757	-0.4043251	-0.42421296	-0.42421296	-0.42421296	-0.42421296	-0.42421296	-0.42421296	1.3894609	2.4719574	2.7840478	2.7690823	1.9999686	0.22343536	-0.42421296	-0.42421296	-0.42421296	-0.42421296	-0.42421296	-0.42421296	-0.42421296	-0.42421296	-0.42421296	-0.42421296	-0.42421296	-0.42421296	-0.42421296	-0.42421296	-0.42421296	-0.42421296	-0.42421296	-0.42421296	-0.42421296	-0.42421296	-0.42421296	-0.42421296	-0.42421296	-0.40676138	-0.2971295	0.17898603	2.1598175	2.7452664	2.5955107	1.9934058	0.92428374	-0.23418441	-0.42421296	-0.42421296	-0.42421296	-0.42421296	-0.42421296	-0.42421296	-0.42421296	-0.42421296	-0.42421296	-0.42421296	-0.42421296	-0.42421296	-0.42421296	-0.42421296	-0.42421296	-0.42421296	-0.42421296	-0.42421296	-0.42421296	-0.42421296	-0.42421296	-0.42421296	-0.42421296	-0.24701208	0.5893224	1.5478182	2.5179482	2.3874838	1.6304024	0.67747533	-0.094422415	-0.42421296	-0.42421296	-0.42421296	-0.42421296	-0.42421296	-0.42421296	-0.42421296	-0.42421296	-0.42421296	-0.42421296	-0.42421296	-0.42421296	-0.42421296	-0.42421296	-0.42421296	-0.42421296	-0.42421296	-0.42421296	-0.42421296	-0.42421296	-0.42421296	-0.42421296	-0.42421296	-0.32353064	0.2675864	1.9263837	2.726174	2.476283	1.4319217	0.31730613	-0.3011568	-0.42421296	-0.42421296	-0.42421296	-0.42421296	-0.42421296	-0.42421296	-0.42421296	-0.42421296	-0.42421296	-0.42421296	-0.42421296	-0.42421296	-0.42421296	-0.42421296	-0.42421296	-0.42421296	-0.42421296	-0.42421296	-0.42421296	-0.42421296	-0.42421296	-0.42421296	-0.42421296	-0.35738975	0.09396539	1.2281703	2.6669579	2.7755456	1.5584582	0.25634986	-0.3291987	-0.42421296	-0.42421296	-0.42421296	-0.42421296	-0.42421296	-0.42421296	-0.42421296	-0.42421296	-0.42421296	-0.42421296	-0.42421296	-0.42421296	-0.42421296	-0.42421296	-0.42421296	-0.42421296	-0.42421296	-0.42421296	-0.42421296	-0.42421296	-0.42421296	-0.42421296	-0.42421296	-0.4192907	0.0035750698	1.0601677	2.3081312	2.7717173	2.6652179	0.46387964	-0.30488575	-0.42421296	-0.42421296	-0.42421296	-0.42421296	-0.42421296	-0.42421296	-0.42421296	-0.42421296	-0.42421296	-0.42421296	-0.42421296	-0.42421296	-0.42421296	-0.42421296	-0.42421296	-0.42421296	-0.42421296	-0.42421296	-0.42421296	-0.42421296	-0.42421296	-0.42421296	-0.42421296	-0.42421296	-0.35037926	1.003139	2.6966405	2.750139	2.6095319	1.012039	-0.15562733	-0.4162578	-0.42421296	-0.42421296	-0.42421296	-0.42421296	-0.42421296	-0.42421296	-0.42421296	-0.42421296	-0.42421296	-0.42421296	-0.42421296	-0.42421296	-0.42421296	-0.42421296	-0.42421296	-0.42421296	-0.42421296	-0.42421296	-0.42421296	-0.42421296	-0.42421296	-0.42421296	-0.42421296	0.15168992	1.1379291	2.1823902	2.7960799	2.6084878	1.7130864	-0.0723469	-0.3821501	-0.42421296	-0.42421296	-0.42421296	-0.42421296	-0.42421296	-0.42421296	-0.42421296	-0.42421296	-0.42421296	-0.42421296	-0.42421296	-0.42421296	-0.42421296	-0.42421296	-0.42421296	-0.42421296	-0.42421296	-0.42421296	-0.42421296	-0.42421296	-0.42421296	-0.41710305	-0.31756428	0.6849333	1.6595381	2.330157	2.6792386	2.4693723	1.4949163	0.3357521	-0.37354863	-0.42421296	-0.42421296	-0.42421296	-0.42421296	-0.42421296	-0.42421296	-0.42421296	-0.42421296	-0.42421296	-0.42421296	-0.42421296	-0.42421296	-0.42421296	-0.42421296	-0.42421296	-0.42421296	-0.42421296	-0.42421296	-0.42421296	-0.42421296	-0.42421296	-0.41213107	-0.28141809	0.81559664	1.981125	2.5650826	2.754067	2.303358	1.2979769	0.3007992	-0.32502222	-0.41760024	-0.42421296	-0.42421296	-0.42421296	-0.42421296	-0.42421296	-0.42421296	-0.42421296	-0.42421296	-0.42421296	-0.089500174	0.026396338	-0.1866027	-0.42421296	-0.42421296	-0.42421296	-0.42421296	-0.42421296	-0.42421296	-0.42421296	-0.42421296	-0.42421296	-0.33277848	0.19852585	2.0897624	2.6785924	2.6225085	1.9918643	0.99786884	0.096202746	-0.32532057	-0.42421296	-0.42421296	-0.42421296	-0.42421296	-0.42421296	-0.42421296	-0.34938487	-0.10854282	0.22557332	0.2791711	0.74902195	1.252533	1.3900079	1.0113429	0.25724474	-0.42421296	-0.42421296	-0.42421296	-0.42421296	-0.42421296	-0.42421296	-0.42421296	-0.42421296	-0.14886546	1.1532427	2.6783435	2.7872796	2.2529423	0.7982941	-0.26670104	-0.42421296	-0.42421296	-0.42421296	-0.42421296	-0.35311383	-0.30389136	-0.056287434	0.2708679	0.614928	1.078166	1.603703	1.6948888	2.4272592	2.6746147	2.6630301	2.282625	1.1334047	-0.42421296	-0.42421296	-0.42421296	-0.42421296	-0.42421296	-0.42421296	-0.42421296	-0.42421296	0.080690205	2.3014193	2.7608285	2.708325	1.6429318	0.27221042	-0.42421296	-0.42421296	-0.40899873	-0.3348667	-0.2200143	0.27360252	0.48570654	1.1348466	1.9844066	2.5732365	2.7748497	2.6926131	2.681476	2.4622126	2.3281186	2.1012478	1.7191023	0.84135145	-0.42421296	-0.42421296	-0.42421296	-0.42421296	-0.42421296	-0.42421296	-0.42421296	-0.42421296	0.16228019	2.7087226	2.77833	2.3450727	0.6496821	-0.23562628	-0.32402784	-0.27729136	-0.19430922	0.20956358	0.79635507	2.3410459	2.762221	2.7691815	2.728461	2.68257	2.5343559	2.0756917	1.9253395	0.9062853	0.4685036	-0.07443512	-0.42421296	-0.42421296	-0.42421296	-0.42421296	-0.42421296	-0.42421296	-0.42421296	-0.42421296	-0.42421296	-0.42421296	-0.079954	1.4975516	2.6975853	2.5803463	2.0188622	1.0792601	1.078564	1.7796112	1.888348	2.4112499	2.637474	2.7538183	2.7900639	2.4935358	1.9606901	1.2723215	0.4523945	-0.19072942	-0.26312125	-0.3355131	-0.3646985	-0.40089443	-0.42421296	-0.42421296	-0.42421296	-0.42421296	-0.42421296	-0.42421296	-0.42421296	-0.42421296	-0.42421296	-0.42421296	-0.3338226	0.16874379	1.7209916	2.359939	2.5775123	2.481404	2.4869726	2.6297677	2.5949144	2.441181	1.8724874	1.3949302	0.85492486	0.42619213	0.11156613	-0.12500003	-0.28773248	-0.41078866	-0.42331803	-0.42421296	-0.42421296	-0.42421296	-0.42421296	-0.42421296	-0.42421296	-0.42421296	-0.42421296	-0.42421296	-0.42421296	-0.42421296	-0.42421296	-0.42421296	-0.413026	-0.32850263	0.176152	0.7700037	1.5025234	1.7769761	1.5413545	1.0922369	0.7421606	0.5933	0.23760553	0.044146277	-0.16417913	-0.30612877	-0.38617742	-0.42421296	-0.42421296	-0.42421296	-0.42421296	-0.42421296	-0.42421296	-0.42421296	-0.42421296	-0.42421296	-0.42421296	-0.42421296	-0.42421296	-0.42421296	-0.42421296	-0.42421296	-0.42421296	-0.42421296	-0.42421296	-0.42421296	-0.42421296	-0.20703748	0.1838088	0.3386856	0.18763725	-0.09879775	-0.30796838	-0.3406839	-0.41864434	-0.42421296	-0.42421296	-0.42421296	-0.42421296	-0.42421296	-0.42421296	-0.42421296	-0.42421296	-0.42421296	-0.42421296	-0.42421296	-0.42421296	-0.42421296	-0.42421296	-0.42421296	-0.42421296	-0.42421296	-0.42421296	-0.42421296	-0.42421296	-0.42421296	-0.42421296	-0.42421296	-0.42421296	-0.42421296	-0.42421296	-0.42421296	-0.42421296	-0.42421296	-0.42421296	-0.42421296	-0.42421296	-0.42421296	-0.42421296	-0.42421296	-0.42421296	-0.42421296	-0.42421296	-0.42421296	-0.42421296	-0.42421296	-0.42421296	-0.42421296	-0.42421296	-0.42421296	-0.42421296	-0.42421296	-0.42421296	-0.42421296	-0.42421296	-0.42421296	-0.42421296	-0.42421296	-0.42421296	-0.42421296	-0.42421296	-0.42421296	-0.42421296	-0.42421296	-0.42421296	-0.42421296	-0.42421296	-0.42421296	-0.42421296	-0.42421296	-0.42421296	-0.42421296	-0.42421296	-0.42421296	-0.42421296	-0.42421296	-0.42421296	-0.42421296	-0.42421296	-0.42421296	-0.42421296	-0.42421296	-0.42421296	-0.42421296	-0.42421296	-0.42421296	-0.42421296	-0.42421296	-0.42421296	-0.42421296	-0.42421296	-0.42421296	-0.42421296	-0.42421296	-0.42421296	-0.42421296	-0.42421296	-0.42421296	-0.42421296	-0.42421296	-0.42421296	-0.42421296	-0.42421296	-0.42421296	-0.42421296	-0.42421296	-0.42421296	-0.42421296	-0.42421296	-0.42421296	-0.42421296	-0.42421296	-0.42421296	-0.42421296	-0.42421296	-0.42421296	-0.42421296	-0.42421296	-0.42421296	-0.42421296	-0.42421296	-0.42421296	-0.42421296	-0.42421296	-0.42421296	-0.42421296	-0.42421296	-0.42421296	-0.42421296	-0.42421296	-0.42421296	-0.42421296	-0.42421296	-0.42421296	-0.42421296	-0.42421296	-0.42421296	-0.42421296	-0.42421296	-0.42421296	-0.42421296	-0.42421296	-0.42421296	-0.42421296	-0.42421296	-0.42421296	-0.42421296	-0.42421296
0.11561008	0.101646975	0.08686917	0.08834861	-0.014355649	-0.15351164	-0.18524224	-0.16411433	0.13181993	-0.09134923	-0.042597856	-0.04059568	-0.12112289	0.029097728	-0.1683996	-0.03634124	-0.09132967	-0.17122574	-0.11476351	-0.1554057	0.15207823	-0.16547719	0.19589065	0.11122943	-0.15645821	0.3590358	0.2720869	0.27208656	0.29699558	0.14585073	0.29542214	0.07999208	0.28731203	-0.0143722985	-0.019946873	-0.1803048	0.21140105	-0.011443256	0.12181266	-0.02532488	-0.17036797	-0.09577583	-0.1542391	0.19477642	-0.124606855	-0.12346606	-0.25604722	-0.21978927	0.17674443	0.22527513	0.20572545	0.039605193	0.20786937	0.2019639	0.024624446	0.19814397	0.350593	0.45822284	0.33175752	-0.068168014	0.04623385	0.3843755	0.57688683	0.4379499	0.011679198	0.16494772	0.31264114	0.6495812	0.17500548	0.106568605	-0.02762509	0.28127292	0.37540928	0.4030486	0.07963493	-0.17751941	-0.105528414	-0.13592267	-0.10294213	0.055877753	0.04917021	0.045374807	-0.16419871	-0.15543029	-0.027294219	0.22932819	0.22442392	-0.12286508	-0.102257416	-0.06539	0.021267042	0.21885222	0.19776893	-0.07410989	-0.09292524	-0.11826147	0.14862493	-0.023996532	0.17235504	0.18074627	-0.12308886	-0.18315053	-0.13159783	-0.15406573	-0.16595961	-0.17715956	-0.107471004	-0.087526344	0.1777415	-0.07215126	0.13473395	-0.05638899	0.04570375	0.39502478	0.3956247	0.2732747	0.55861473	0.41112563	0.55799204	0.3431164	0.47566885	0.37856472	0.44596097	0.11760863	-0.040379774	-0.05261353	-0.05908103	-0.14414924	0.016044514	-0.22530848	-0.04651052	-0.23336132	-0.16258466	-0.19523789	-0.063370466	0.21522652	0.11064603	-0.12406489	-0.23219143	-0.1003669	0.26736408	0.18524648	0.118061736	0.13644154	0.18599951	0.020934926	0.36216843	0.28718376	0.34032068	0.24126281
-0.15256156	0.044755723	0.20513313	-0.014097906	0.38233775	0.08386061
0.006730985	0.07998312	0.020011634	-0.038878422	-0.011016378	0.08177957	0.072110035	0.0704228	0.006038548	-0.0095857605	-0.03967936	-0.018186102	-0.014435371	-0.06076146	-0.042982876	0.053457186	-0.06542529	-0.037712965	0.009970692	0.06753822	0.06620261	-0.011787151	0.05760771	0.017161585	-0.013076935	-0.05821234	-0.014476167	-0.052631848	-0.006505928	0.0722643	-0.07089413	-0.045725644	0.04941169	-0.05222289	-0.07450327	0.027038544	0.07016002	-0.023651907	-0.014536227	0.06367746	-0.057876587	0.024088677	0.062122945	0.103607595	0.03096064	-0.045948923	-0.021478834	-0.054303035	-0.00883981	-0.0067428006	-0.01816158	-0.065667465	-0.05201115	0.037004963	-0.057386987	-0.06781639	0.04926596	0.033357434	0.063939355	0.09578064	0.04988237	0.043631345	0.09517648	0.03595367	0.047634277	-0.02492921	-0.085180186	-0.030797748	0.096277595	0.12743449	-0.122656666	-0.13363826	-0.080443524	-0.063948855	0.092259794	-0.026631197	0.07720346	-0.045762267	-0.07178702	-0.07089122	-0.033045843	-0.015073335	-0.045233842	0.040587008	0.0016113848	-0.014349825	0.03083129	0.013493665	0.015480962	0.08165971	-0.044073	-0.050195705	-0.04059739	0.009003813	-0.045697268	0.03101144	0.038130157	-0.0546026	0.0545216	0.011907222	0.076718755	0.059112992	0.024753878	-0.05931309	-0.0988481	0.044344895	-0.03309616	0.0099514825	-0.026719812	0.07730864	-0.048286486	0.088143244	0.1145428	0.13862345	0.070769705	0.0372054	0.065856084	-0.07707874	-0.080502644	-0.055710692	-0.07994208	-0.03261191	-0.115881614	-0.035527047	-0.054037265	-0.016631417	-0.0052396734	0.06983476	-0.00814527	-0.0039710156	0.08508133	0.053758852	0.061620325	0.09594851	0.015671892	0.010973295	0.10445258	0.09538548	-0.00722912	0.0018431246	-0.0072919554	0.024877308	-0.08608951	-0.01901938	0.033631828	-0.068271436	0.033994555	-0.0576889	0.024594458	-0.016591538	0.040010493	0.07723183	0.005206507	0.059514757	0.07715514	-0.0069818716	0.03381217	0.074059516	-0.066306815	0.07816283	0.008484073	0.06602776	0.047801442	-0.052983485	-0.012756949	-0.047904257	0.005381823	0.0069553563	-0.049726322	-0.03657989	-0.0024602679	0.056981836	-0.05200701	-0.07197601	0.0116993785	0.05812505	0.047355868	0.020144159	-0.022416614	0.06663095	-0.04066931	-0.029218247	-0.060939886	0.020348366	-0.04055548	0.045631032	0.03233313	-0.0076812482	0.006239365	-0.058004856	0.032760937	0.03445358	0.045554724	0.025901219	0.074659176	0.11328184	0.06026582	0.07546536	-0.006218865	-0.074044004	0.013508015	-0.06348677	-0.01893012	0.06409551	-0.059114765	-0.06628671	-0.051500127	0.02585699	0.023353219	0.057335265	0.014022416	-0.0066172876	0.02115387	0.077272706	-0.030339094	0.033772655	-0.005431297	-0.0013255753	-0.07529749	-0.035110414	0.07687019	0.044529963	0.028246984	0.050656117	0.04184621	0.02204745	-0.0066743745	-0.026196467	0.02274678	-0.061157294	-0.050055668	-0.006090515	0.08556936	0.03208858	-0.041240357	0.04245737	0.060471628	-0.029838532	0.048686154	0.072028846	-0.00778286	0.0013547468	0.077651754	0.0717898	0.07633998	-0.015635971	0.045818426	0.07369394	-0.0032559433	-0.037941575	-0.022396404	-0.08338397	-0.025937967	-0.025552463	-0.017042212	-0.049503133	-0.032925133	-0.013987397	0.098352745	-0.09205394	0.13465999	0.121167354	0.025919843	-0.0669811	-0.023713643	0.13972539	0.05403729	0.072332144	-0.07741315	-0.06465289	-0.08049266	0.052736156	-0.07179092	0.06202588	0.02588472	0.0344599	-0.02056866	-0.04427274	0.031002274	-0.026034497	0.008766508	0.060242184	-0.006416894	-0.072047815	0.025272092	-0.0059653153	0.038743623	0.01831787	0.06660406	-0.058210324	0.05488718	0.028475884	-0.058434617	-0.06924454	-0.07058661	-0.0057027047	-0.07643216	0.04220266	0.0697422	-0.07818249	0.052625734	-0.054289527	0.012749399	-0.07936131	-0.053516697	0.053314317	-0.049754698	0.06329571	0.070105255	-0.047587655	-0.0007142224	-0.024993721	0.014272506	0.024493959	0.0010319034	0.011881881	-0.024451267	0.057128176	-0.02963656	0.066648945	-0.003618578	-0.0126821	0.014329228	0.08656549	0.074382074	0.020453954	0.0138010355	-0.0038706437	-0.05598403	-0.0649766	-0.11105563	-0.07313168	-0.031422533	-0.039657485	-0.016079547	-0.11866432	0.012473701	-0.011417652	0.040933456	0.037267298	-0.032970764	0.0402203	0.018587535	-0.05554818	0.016032405	-0.006704835	0.060420334	0.028594155	-0.02208765	-0.02713753	-0.08954899	0.08409222	0.10322058	-0.0072295833	-0.013572878	0.008427774	0.15058193	0.048846975	-0.06460003	-0.07076701	0.21931168	0.21167035	0.08607915	-0.18154301	-0.16539074	0.24841267	0.17689861	-0.11262818	-0.1880723	-0.071958564	0.15616864	-0.035678998	-0.0910987	-0.1515723	-0.016783351	-0.027284682	0.019692844	0.023375079	-0.014809588	0.042389248	-0.039514776	0.055378612	-0.027949587	0.073902756	-0.019443216	-0.012668268	-0.021420207	0.023610022	0.044965845	0.0809525	0.026008878	-0.09704455	-0.09266912	-0.020102596	0.005057994	0.037503522	-0.050974626	-0.026540816	0.07637782	-0.02469784	-0.0648785	0.12314267	0.15457277	0.13580674	-0.08559413	0.0347452	0.18634644	0.13233773	0.01655977	-0.07294594	0.1411251	0.1445534	-0.035915755	-0.012562058	-0.048308026	0.08911801	0.04104728	-0.032153938	0.0054275943	0.027910024	0.031141711	-0.043357804	0.0065180217	0.012175094	-0.06543721	-0.013577609	-0.06400456	0.04814579	0.004969987	0.018658297	0.061401714	-0.005471579	-0.004536322	-0.057960197	-0.028873438	-0.1031009	-0.06157944	-0.042342838	-0.08735038	-0.06661454	-0.052839063	-0.1376028	-0.07364093	-0.0128143625	0.019744633	-0.009205519	-0.028261967	0.0403658	-0.052035924	0.004408578	0.010056093	-0.051158097	0.052194927	-0.017756509	-0.0064797965	-0.0654592	0.040831372	0.032193694	0.026689485	-0.012349807	0.04239543	-0.014055512	0.042894065	0.008954012	-0.047743578	0.05168243	0.041592494	-0.07172685	-0.06524133	0.090276934	-0.049165253	0.065772496	-0.041226286	0.009786246	-0.027160995	0.06583384	-0.047390584	0.030152537	0.10165823	0.06548931	0.063282564	-0.08572933	-0.06054971	-0.034633666	-0.08569939	-0.06213745	-0.115384445	-0.14236125	0.008740821	-0.035473984	-0.04029416	-0.047685694	-0.018845238	0.07896435	0.08711138	0.057773367	0.13078849	0.14936844	0.095746115	0.013958767	-0.066323124	-0.16721722	-0.0716361	-0.13711432	-0.059232343	-0.14129248	-0.13154498	-0.2041622	-0.050921265	-0.051099267	-0.028411718	-0.13519517	-0.014069457	0.006129792	0.07784521	0.025738712	0.16132085	0.04599638	0.013484569	0.046543907	-0.03021678	0.07987463	-0.016271245	0.06774009	-0.065276675	0.054406166	0.058630522	0.07313165	-0.010639539	-0.040906843	0.08361512	-0.009124069	0.063492715	-0.005451296	0.07861594	0.03396561	0.04466458	-0.0026186085	0.055858064	0.0011729345	-0.011219775	-0.0068712067	-0.059582792	0.022902327	-0.0030200754	-0.01137726	0.0323216	-0.06574085	0.07582888	-0.07434105	0.007826522	-0.17655501	-0.18445456	-0.1375149	-0.05223514	-0.082196325	-0.0030372003	0.0028003848	0.13333336	0.13972415	0.019276028	0.19022241	0.3168797	0.31104556	0.20630513	0.17708114	0.1406329	0.1224985	-0.018868756	-0.013193956	-0.06530151	-0.11094683	0.02783936	-0.042618845	-0.052527856	-0.059037227	0.070518814	-0.07414249	0.044668514	0.042399153	0.08576729	0.09746844	0.12940675	0.07147723	0.07827404	0.12187055	0.11140914	0.14224438	0.046287593	0.010804599	-0.0031738516	0.097420104	-0.025655717	0.054636423	-0.019886589	-0.014443755	-0.044742577	-0.039277658	0.034957435	0.079787284	-0.081176154	-0.030622745	-0.034731783	-0.05735475	0.006590208	-0.06254206	-0.011132903	-0.00997822	0.01741884	-0.03880386	0.04796991	0.0031265656	-0.06735716	0.017106604	-0.07953403	0.033568166	-6.732652e-05	-0.022445308	0.002553521	0.015859492	0.03680633	0.05171934	0.060722314	-0.0028849258	-0.06021364	0.061090667	0.036084473	0.048710383	-0.043479145	-0.03458097	-0.04164347	0.04625161	-0.037743434	-0.008241402	-0.10079825	0.082226336	0.03545777	-0.050546613	0.04184595	0.077867635	0.08481513	0.040986735	0.051929284	0.042416316	0.06736121	-0.056616317	0.08982166	0.075456984	0.10104573	-0.008353356	-0.003963587	-0.103325136	-0.0020200703	-0.090193525	-0.03609861	0.011108439	0.0004593475	0.006923739	-0.041894436	0.039824825	0.13886993	0.15376274	0.11156752	-0.00622295	0.008158623	-0.075247325	0.05587604	0.034891944	0.0062922654	-0.10354413	-0.14646208	-0.057362966	-0.11059314	-0.045055073	-0.05382248	0.06880043	0.03747723	0.07010181	0.0641313	0.049954064	0.010631824	0.103092074	0.060140036	0.05444319	0.030157985	-0.006602828	-0.027658477	0.047370132	0.061636567	0.010669239	-0.026532462	0.07467679	0.0014648266	0.027685069	0.00468486	-0.036276337	-0.0027758325	0.004846721	-0.02536684	-0.042596966	0.010649555	-0.070244536	-0.0013477632	-0.01582545	-0.12331868	0.119639	0.09233583	0.016615162	0.022984883	0.089342184	0.13238212	0.12076197	0.15670522	0.18061031	0.08878445	-0.07318501	-0.05753893	0.10399847	0.04746169	0.044691775	-0.042253587	-0.11569044	-0.026912816	-0.010679193	-0.083570145	-0.035470743	0.027222913	-0.07044448	-0.0150859775	-0.07672963	0.03302604	0.09194752	0.022548778	0.056950532	0.09856949	0.12641151	0.041229974	0.1339531	0.027236056	0.10424886	-0.017958812	-0.027118819	0.08135937	0.0035747986	0.097475834	0.04311886	0.009936511	0.05913286	0.002197006	-0.016520957	0.026493216	-0.030180156	0.06612027	-0.067481175	0.03747679	0.0128751835	0.016447764	0.0006116845	0.024211967	0.0045368657	-0.03868756	-0.014201787	-0.039137848	0.08608334	-0.057059117	0.002455064	-0.01964185	0.031150915	-0.0046319747	0.08618015	-0.017949782	0.024205668	0.01981729	-0.034080468	0.053807616	0.00882624	-0.05701863	0.049589187	-0.054864075	-0.060045477	-0.026445515	0.06783871	0.06301045	0.012741883	-0.025284814	0.06358817	-0.007557064	0.029206105	0.11340317	0.062949724	0.01094778	0.037418395	0.018695837	0.07788948	0.091729745	-0.002599569	-0.040742338	0.022674948	-0.11288149	-0.10512991	0.06811559	0.08081887	0.043879405	-0.04154157	-0.021483542	0.089177616	0.15430395	0.18402965	0.12540327	0.040639218	-0.013160535	0.00738808	0.054924738	0.07287229	0.050342165	-0.049679864	-0.15059243	-0.21818249	-0.16732062	-0.096685976	-0.097144075	-0.047055915	-0.14811969	-0.100944564	-0.09068977	0.0031464738	0.08211747	0.08167063	-0.00750266	0.07873538	-0.060535703	0.09487945	-0.020956064	0.07815904	-0.038185943	-0.052809738	-0.046057507	0.08113483	-0.033603545	0.022021597	-0.031548556	0.066125885	-0.065667234	0.012013849	0.04975072	-0.024052663	0.048911717	-0.028148696	0.012565449	-0.0041814814	0.007218323	-0.039481625	-0.048017524	-0.060007516	0.0627674	-0.043733988	0.08513462	0.19135013	0.2417579	0.26592857	-0.13198146	-0.07938113	0.010729897	-0.034299802	-0.06416438	-0.17791326	-0.12488685	-0.1266284	-0.18896566	-0.112264946	-0.098263405	-0.1147868	-0.0040240777	0.0127271	0.074130535	-0.022582626	0.010553928	0.044552978	0.045419388	0.11768138	0.050259758	-0.021783793	0.17728834	0.15731263	0.105520815	-0.03754996	0.034550928	0.020013925	0.05220422	-0.046078887	-0.054387007	-0.05725067	0.06571545	0.02842695	-0.020786395	0.018062271	0.037318762	0.0799052	-0.008035894	-0.020285789	-0.0679406	0.029049307	0.041467834	-0.0024801004	-0.017910095	0.05837721	-0.053958923	-0.07644976	-0.016195303	-0.06976855	-0.0111198155	0.048983134	-0.046402406	0.057692606	-0.011678015	0.012457467	0.07482382	0.014900431	0.069855005	0.020429235	-0.057765137	-0.0058179144	-0.07516187	0.06569006	0.060323097	0.038819898	-0.06249641	-0.06600951	-0.05952338	-0.083996296	-0.060911823	-0.051781293	-0.07680363	-0.034087855	-0.033872865	0.0018124384	0.052617755	-0.06687797	0.026188923	-0.027733846	0.030062998	0.058686215	0.091980726	0.07774037	0.100108005	0.050728478	-0.0066463496	0.056659117	0.033254586	-0.031352736	-0.09667655	-0.051314496	-0.076283924	-0.050189804	-0.03875131	-0.049325008	-0.010588482	0.017078238	0.07707667	0.0030411966	0.042713694	-0.019805724	0.10796115	0.043282703	0.014164462	-0.08031531	0.020072974	0.023583988	0.12655419	0.1302913	-0.088015884	-0.10842491	0.014534241	-0.059853755	0.07989656	-0.014382147	0.008464566	-0.028808583	0.061301112	-0.06580861	-0.060157657	0.011330493	0.062295943	0.07615097	-0.063010335	-0.04991267	-0.060753103	-0.058497474	-0.024401583	-0.025782846	-0.01742688	0.026349608	-0.02491261	0.032642644	0.051643517	0.07831707	0.0634168	-0.030330803	-0.038391847	-0.07753423	-0.00855185	0.02739446	0.0429813	-0.06989478	-0.025132125	0.06704172	0.03742961	-0.034180876	0.008581765	-0.106287375	0.11691993	0.14762376	0.074630894	-0.060938656	0.03266789	0.053177956	0.05740293	0.04938796	-0.063329525	0.08167872	-0.0148888435	-0.0034114446	-0.021772327	0.06896322	0.07196776	-0.023236655	-0.0663798	-0.0672798	0.05184067	-0.07247605	0.08808535	0.048747525	-0.057772137	-0.04078403	0.07560277	0.02495698	0.059617456	0.107637405	0.08098237	0.057643227	-0.07194483	0.07965184	0.042364005	-0.0054661306	0.06573825	0.012707464	-0.033563048	-0.007457703	0.011330816	-0.06391533	-0.054776393	-0.005308582	-0.028501965	-0.035555292	-0.046760947	0.0068964404	0.061311394	0.027857274	0.018650314	0.022854231	-0.014052077	0.073783524	0.024969328	-0.033921827	0.0055302926	0.0028256709	-0.004344281	-0.081393495	0.021739835	0.05200296	0.028344247	-0.019954754	-0.08491373	-0.08411226	0.009409146	0.010158733	-0.023427676	-0.098163225	0.024232764	0.017929664	-0.039553467	0.044944398	-0.06273843	-0.03868953	-0.0140937865	0.09491937	0.13776094	0.045106143	0.013349827	-0.08620727	0.051241178	0.0632992	0.11555435	0.091983885	-0.07956157	-0.07436477	-0.030629804	-0.07758186	-0.0056641772	0.098702684	-0.009185625	0.06167191	-0.14261131	-0.17436008	-0.13976698	0.08826023	0.03580002	0.123065814	-0.060849495	-0.13590261	0.029521413	0.13629897	0.20808071	0.1464598	-0.030207746	0.0005569376	0.02291949	0.07863158	0.22355774	-0.011584013	-0.086439	-0.083563134	-0.03734406	0.16410668	0.10230591	0.062008675	0.03966533	0.058703516	0.0026257513	0.057907153	0.071227476	-0.028233659	0.09821616	0.079592966	-0.008994003	-0.08533892	0.018273246	0.046164736	0.13485971	-0.0016155157	0.03987828	-0.065532744	0.0837715	-0.025949819	0.11193753	-0.018690439	-0.054278303	-0.066574916	0.058217626	0.04728379	-0.05495768	0.011390017	-0.06347331	-0.054201502	0.007741911	-0.0028339918	0.03861694	0.054570653	0.06564823	-0.0867317	-0.09007784	-0.065554574	0.030848192	0.0153830275	-0.03643538	-0.12748282	-0.04157703	-0.052949898	0.076595455	-0.08658547	-0.0074905027	-0.07400448	0.07609437	0.03705101	0.013307539	-0.03708425	0.007706589	0.07366745	0.05593701	-0.09757952	0.016004229	0.026993848	0.15525064	0.08962173	0.026198106	-0.05664088	-0.014712768	-0.0021749777	0.04708656	0.013054478	0.05630519	-0.0050605675	-0.043146096	-0.011135238	0.012118933	0.04113609	-0.08274136	-0.101154216	-0.0059159957	-0.0147136375	-0.003001122	-0.010591107	0.08205736	-0.057701103	0.061525237	0.06265968	0.08147523	-0.0009845261	-0.016788695	-0.035532888	0.03352523	0.008574721	-0.022880137	-0.07169328	0.07485317	0.027417513	0.068036884	-0.0016627361	0.017161867	-0.03601526	-0.070242465	-0.06828699	0.07569839	0.07887109	0.054585416	0.017130617	0.088066556	0.0809865	0.09946165	0.09044371	-0.0738457	0.023973422	0.057706688	0.0065062777	0.10568641	0.059643198	-0.04438554	0.040732052	-0.05180931	0.010763468	0.09504498	-0.029368557	-0.06371058	-0.05773084	0.0005930928	-0.010687117	-0.017946739	0.038676787	0.03961888	-0.04359383	-0.03589525	-0.03712918	0.07600346	-0.010072271	0.012754072	0.025016513	0.046693098	0.057542503	-0.063755155	-0.08850538	-0.01615866	-0.13288938	-0.07132443	0.045800205	-0.09319469	0.061293673	-0.0068354765	-0.052811954	0.07228046	0.03676798	-0.018646136	-0.019577561	-0.025175983	-0.022381853	-0.010774986	-0.056925498	0.08083493	0.043019675	-0.0007512295	0.003161824	-0.021172347	0.014448931	0.06078733	0.09414148	-0.0021602917	0.051635526	0.08450468	0.02113661	0.09985585	-0.06889535	0.09471128	0.011165314	0.0042794477	0.02369902	0.0808423	0.0063295946	0.073161736	0.020013358	0.028088441	0.019829152	0.00046553704	-0.0107300235	-0.0064926674	0.08427874	0.018601432	-0.0010620366	-0.0069163563	-0.028931364	-0.056853026	-0.08638102	-0.057166588	-0.06365062	-0.114977926	-0.09784806	0.012165963	0.06436173	0.111367665	0.09918945	0.06985834	-0.010310567	0.10042105	0.09763441	0.056534294	-0.05952438	-0.033915084	0.04488633	0.0033655209	-0.003992067	-0.03636908	0.028576937	-0.064260684	0.054233365	0.07131736	0.047890976	-0.053065214	-0.028290002	0.012859413	-0.0019303813	-0.010079502	0.0010476987	0.017245	0.13352853	-0.03375178	-0.0032781076	-0.015641902	0.01694666	0.012840761	-0.023859814	-0.02877623	0.088152535	0.056007687	0.04183074	0.07157125	-0.007833893	-0.062190264	0.03893528	0.024881616	0.079630286	-0.027930293	0.010849338	0.066827334	0.07636247	0.082565516	0.039400943	-0.03893076	0.05587301	-0.019536356	0.012125957	-0.058415882	0.071248285	-0.021454476	-0.059691932	-0.04304426	0.060882892	-0.016475962	0.013865706	-0.08710055	-0.058595672	-0.051055867	-0.009874551	0.0016730324	0.037940476	-0.06176741	0.005556971	0.07349902	-0.016941585	-0.06714614	-0.038223032	-0.041733395	0.10129479	0.034752328	-0.0364775	-0.064585395	0.06542142	-0.010722401	0.052164104	-0.012601651	0.029736783	-0.096705526	0.06465145	0.043947272	-0.04756236	-0.11761297	0.11908839	0.20112574	0.046545126	-0.050091192	0.005129684	0.03610262	0.21989132	-0.008160891	-0.0375498	-0.030050458	-0.069690466	0.060196154	0.07260377	-0.06318476	-0.14486027	-0.055689387	0.03382727	0.034823574	-0.015934322	-0.049947977	-0.04861704	0.020692052	0.03339718	-0.061676398	-0.040483784	0.04074937	-0.06299705	0.05375007	-0.0049963677	-0.0006651196	-0.010588301	0.05590225	-0.030978149	0.038621977	0.029580489	0.06688849	-0.07164143	0.039321154	-0.06544081	0.027105272	-0.023905404	-0.05798906	-0.003736181	-0.010349735	0.098619156	0.02672835	0.07456945	0.02281787	-0.07060168	-0.028957797	-0.007937876	-0.0069772005	0.076576546	-0.10734014	-0.11618129	0.05577692	0.031631444	0.0087268185	-0.08419569	-0.114339784	-0.061393782	0.02011306	-0.013828372	0.023114651	-0.07477142	-0.073148854	0.0059695644	-0.00449958	0.0587155	0.028306574	0.032759175	0.110522896	0.017622333	-0.080999844	-0.039296657	-0.07696794	0.0957838	0.034920234	0.045027178	0.016722128	0.05438561	0.0705592	-0.051305514	-0.08211972	0.058586627	-0.089844	-0.02700526	0.0057984046	0.0074324124	0.09328199	-0.06015706	-0.043596666	0.08427261	-0.026366433	-0.027493883	0.070629425	0.050703954	-0.038211074	0.062011305	-0.058385856	-0.0054691965	0.04964623	-0.06655188	-0.01774693	-0.028257383	0.03704721	0.053062573	-0.009655683	0.023925176	-0.0662232	0.027900344	-0.096273065	-0.028834343	-0.00046152208	0.06148265	-0.057048067	-0.0919422	0.063997716	-0.054652028	-0.0064886613	-0.0856549	-0.07568881	-0.08846462	-0.060411647	0.049835905	0.083484404	-0.06601274	0.051073622	0.047837637	0.0007154264	0.059839297	0.020581286	0.05450569	-0.045858506	-0.010342585	-0.06944993	-0.08297978	0.02689437	0.06262279	-0.013263579	0.029750798	0.0019529808	0.02610554	-0.018907385	0.04299906	-0.0072045806	0.0056153433	-0.06491785	0.06166081	0.041317515	0.063625656	0.11349118	-0.021359628	-0.05254119	-0.014867556	0.042026885	0.23469292	-0.008970081	-0.0032255955	-0.16525538	0.094650336	0.2982688	-0.06976574	-0.12541749	-0.1264461	0.19930322	0.22897562	-0.059333604	-0.050308503	0.030725779	0.14506042	0.114966154	0.038698524	-0.005282166	-0.01790126	-0.022181796	0.073533244	0.04451169	-0.06837449	0.08426331	-0.024367273	0.033312242	0.071126744	0.008606327	0.06907851	0.056997284	-0.0021200501	-0.07594902	-0.045748077	0.028442305	-0.046905916	-0.083117954	-0.026311189	0.0054194685	-0.075829975	-0.08814505	-0.093195	-0.046311375	0.0541812	-0.0043331697	-0.0794375	0.009526827	-0.043433167	-0.00093121035	-0.06465405	-0.031130448	-0.025497846	0.027287051	-0.10300278	-0.07869536	-0.012163224	0.1381426	-0.025723051	-0.009393212	-0.030317714	0.10590558	0.022755323	0.032482617	0.0037817715	0.033772297	0.10600364	-0.009752019	0.0043250793	0.00989653	0.033329897	0.034590084	0.07214749	0.1027393	0.022590142	-0.027451996	-0.0795665	0.086303264	-0.06816914	0.029421117	-0.08271456	-0.13223973	-0.052475926	-0.037263155	-0.061953537	-0.030434744	-0.07934685	-0.06160471	0.08132792	0.04081436	0.023153929	-0.077029	-0.08048341	0.010740307	0.041001	0.019751733	-0.032250203	0.0055895336	-0.011826089	-0.03238148	0.009840741	0.07405604	0.059269577	-0.05359352	0.004352224	-0.06661105	-0.03059836	0.020960165	-0.0752493	-0.014634751	-0.08213266	0.036834892	0.0037689197	-0.0076834857	-0.08720611	-0.0018939994	-0.005035019	-0.022176472	0.058270212	-0.04814224	-0.05774253	-0.0020304746	0.056696568	0.042088088	0.06305282	-0.07916952	0.05807483	0.05770521	-0.03270003	0.006828514	0.008159163	-0.07349943	-0.040747646	-0.09503416	-0.056960363	0.0073696785	-0.056773257	0.00224706	-0.03219686	0.06427971	0.050515383	0.07312178	0.036736008	-0.122484915	-0.07890858	0.07850505	0.015301001	-0.09202865	0.011549077	-0.14506704	0.09212923	0.11999245	0.012282903	-0.1459207	-0.050842766	0.060120713	0.1473798	0.03915672	-0.13593449	0.02646592	0.16021788	0.034868527	-0.005589291	0.0396452	0.09672936	0.13230889	0.08470191	-0.07495609	-0.028046755	-0.045096282	0.07974716	0.0047257473	0.08018185	-0.039834198	-0.0007570614	-0.009544385	0.0064267605	-0.053761974	-0.06906329	0.040467594	0.03916039	-0.053434096	-0.021356588	-0.031333625	-0.038176697	0.035792734	-0.027350297	-0.016385425	-0.0834986	0.043619983	-0.019292025	0.077221386	0.004594466	0.029131347	-0.04876455	0.0039311885	-0.020039942	-0.04335087	-0.08771173	-0.03063539	0.09281602	0.11914473	0.023968218	-0.057011295	-0.0035771134	0.094284825	0.044579577	0.06685893	0.009258268	0.13398866	0.099207535	-0.011809398	-0.08301017	0.021696473	0.013457605	0.08191608	0.0747096	0.009258106	0.079293944	-0.04945116	-0.068543345	0.041172348	0.04244519	0.06400447	0.053965554	-0.048921704	0.036786184	-0.044262562	-0.014617584	0.019152764	0.058085904	0.008220479	-0.064821206	0.02330447	0.06297725	0.00052256393	0.068998806	0.06483415	-0.0736459	-0.040239263	-0.029241906	0.08782764	0.05508757	0.0010191584	-0.02559785	-0.008851173	-0.020303229	0.07694422	0.0037828372	-0.013696413	-0.0033529901	0.06366305	-0.0055923075	0.0042230594	0.07242893	0.007745103	0.04268229	-0.05649062	0.015118416	-0.072143935	0.06812349	-0.045281295	-0.06161237	-0.010996922	-0.029351147	0.061169863	-0.024174994	0.008044299	0.016580919	-0.04261402	0.03819306	0.10400679	0.07542379	0.06580844	0.037201457	0.10188365	0.15046804	0.15778825	-0.022398453	0.04787954	-0.044546444	-0.052600365	0.027846133	0.009220091	-0.074391834	-0.008392454	0.03092498	-0.03052081	0.009743527	0.05571368	0.01413027	0.008322902	0.0632711	-0.06379584	0.043035746	0.03430667	0.14272931	0.09152254	-0.01937878	-0.09916238	-0.10097644	-0.18886511	-0.07437205	-0.04856744	-0.1732025	-0.22665161	-0.10400328	-0.085180715	-0.03322024	-0.001663432	-0.024000442	0.022497851	-0.020576457	0.07721553	0.08779282	0.15322593	-0.0015617475	0.03361321	-0.07280856	0.02734905	-0.0021938756	0.01997379	-0.090624236	-0.066173434	-0.04326903	-0.0037510556	-0.034789313	-0.054185312	0.076872095	0.04632463	-0.061738152	0.067318484	0.03877808	0.055057935	0.013627081	-0.027936798	0.010227618	0.04260128	-0.017116135	-0.021818904	0.022742724	-0.040504847	0.065054856	0.07272654	0.185643	0.094749704	0.022935878	-0.04879877	0.01458534	-0.1330805	-0.119460836	-0.11882518	-0.050353326	-0.066169225	-0.008248222	0.052275207	0.037440043	0.09993641	0.09219264	0.18153615	0.14193152	0.068013	0.115902655	0.015796037	-0.009832996	0.013206527	0.06688285	-0.024745803	0.04704197	0.0715729	0.0007064497	0.0050303303	-0.010145342	0.014650057	-0.07527558	-0.0563037	0.0040584886	-0.074999616	0.020831935	0.086663805	0.15458211	0.13250045	0.057893723	0.05958814	0.16941135	0.14213878	-0.0020106598	0.090783924	-0.007594929	-0.083461896	-0.05093157	-0.065859064	-0.045161184	0.060608786	0.035386685	0.02908878	0.070329346	-0.07942665	-0.05840274	0.045774546	-0.031367503	0.028113889	-0.009683225	-0.02503031	0.025137872	-0.08554196	-0.033102002	-0.059176	-0.0288248	0.033252485	0.071864106	0.023857411	0.051122416	0.07890432	-0.059714474	0.05936254	-0.023012718	0.04402444	0.07388322	-0.054606684	-0.033626217	-0.018689092	0.06645599	-0.059698913	-0.0545584	0.088850625	-0.02231315	0.0912132	-0.04566127	-0.009007997	0.025286173	-0.016892333	-0.0047990154	-0.04036425	0.049714778	0.0044162045	0.11091961	0.008756964	-0.0757911	-0.028945476	0.09376724	0.008959437	0.021074953	-0.062299613	-0.006043399	0.056773104	0.033849966	-0.034985233	0.028616462	0.10648554	0.009009593	-0.060944956	-0.03366213	-0.029268757	-0.002284981	0.15010124	-0.04565511	0.029847337	-0.04149643	-0.0436105	0.14461857	0.13065547	-0.03803606	-0.07955976	-0.07226598	0.098826855	0.09135706	0.08811652	-0.036577627	-0.014207364	-0.017265243	-0.068194725	-0.06158671	0.024569716	-0.006267896	0.061502583	0.085825965	-0.03810825	-0.0769018	-0.004337318	0.013633069	0.04169872	0.011801573	-0.006512632	0.019799704	0.04387674	0.036206473	0.047131173	0.06562037	0.02764318	-0.07737702	-0.017098408	-0.020920927	-0.02850513	0.12489709	0.16251521	0.0077055106	0.010096336	0.12442713	0.11909986	0.08120721	0.0033737854	0.033966742	0.0049167546	-0.06330529	0.10566512	0.06577105	0.026892137	-0.057034392	-0.01809058	-0.032746393	0.07778644	0.064981945	-0.023844551	-0.10334981	-0.07738035	-0.0684907	0.09826546	-0.03501899	-0.0009838917	-0.057006896	0.08540042	-0.027682215	-0.038644757	-0.034003105	-0.06164101	0.016531413	-0.052817516	0.03714657	0.09288086	0.07384009	0.09546562	0.03411238	-0.07238795	0.03675192	-0.0023164041	0.14033142	0.033159804	-0.021422224	-0.048197865	0.036992934	-0.0474553	0.014714758	0.0036436259	0.04799883	-0.016427735	0.013236978	-0.013645574	0.011822264	0.027130978	-0.010111706	0.06218738	0.03059817	0.032883514	-0.07253433	-0.040884778	0.038152255	-0.03277074	-0.07590475	0.00498557	0.035534363	-0.026915137	0.06254753	-0.06978555	-0.015096215	0.0031961245	0.04775421	-0.041735567	-0.043580186	-0.044009622	0.02958842	0.0391173	0.003074954	0.010536068	0.026213897	-0.02216765	0.10095443	0.020425724	0.08790735	0.03595973	0.027502092	-0.022518488	-0.045794018	0.070985615	0.097640395	0.04881446	0.05490946	0.069040336	-0.017451996	0.06152358	0.15520918	0.04377007	0.122422166	-0.031986285	-0.0042626783	-0.11284856	-0.07720758	-0.08514667	0.04617198	-0.03856429	-0.120841116	-0.032136932	-0.12322451	0.08729239	-0.00086322846	-0.07389536	-0.052457802	-0.013887462	0.03832093	0.042568833	0.15463878	0.11437101	0.076907314	0.029871669	0.028073598	0.044682834	0.055164006	-0.0788655	0.0534936	-0.023001822	0.023547156	0.034512494	0.013345064	-0.00022671056	0.089844294	-0.044935513	0.09637003	0.014589904	-0.0028995096	0.11383369	0.0695112	-0.0036935303	-0.04227988	0.0307185	-0.014224924	-0.019129891	0.019833317	-0.053094313	-0.028568419	0.0014681616	-0.0024472952	-0.07577413	-0.037720874	0.001192941	-0.025920235	0.066287056	0.03099329	-0.13099231	-0.02934316	0.075613044	-0.0008796869	-0.0971486	0.0054197507	0.10533791	-0.0020401163	0.0340129	0.13505244	0.1145671	0.0814152	0.10575173	0.22882555	0.18435934	0.09702278	-0.036224242	0.12868187	0.09837451	-0.05803906	-0.004346798	0.036883146	0.010762446	-0.04190538	0.026987882	-0.044810403	0.0016334273	0.05724943	0.08965635	0.057653274	-0.037809372	0.09325397	0.039402064	0.15811704	0.12590452	0.09763015	0.117083505	0.045477808	0.18222612	0.117665686	-0.038221363	0.01383714	0.04822347	-0.09654938	-0.030683322	-0.07427159	-0.07337099	0.011725272	0.024540007	0.06840768	-0.039037608	0.061970472	0.009964423	0.0018028156	-0.021985354	0.079457924	-0.08697523	-0.024944434	-0.023004381	0.07062837	-0.06992479	-0.015784053	0.046408158	0.04131947	0.019283583	-0.00166748	0.006333023	0.0012020321	0.070790805	-0.059744876	-0.0038666644	-0.073797315	-0.040374838	-0.025004473	-0.0516134	0.043428645	-0.022545716	-0.0013713918	-0.02261166	0.022481475	-0.055667043	-0.019808382	0.12960598	0.09488472	0.04322794	0.048017383	0.09444633	0.07863651	0.042241238	0.029924328	0.13222773	0.043172576	0.02246684	0.017840141	0.11330005	0.023884807	0.036595203	0.0450904	0.0014439187	0.023692017	-0.06401796	-0.008967528	0.08956042	0.023883782	0.0014925769	-0.037536554	-0.049494434	0.00916583	0.09452572	0.020796537	0.088487186	-0.029692909	0.045522507	0.09243291	0.06382457	-0.049428638	0.03601416	-0.10181643	-0.030881405	-0.07672728	-0.056072053	0.038460292	-0.016054202	0.07425957	-0.060260028	0.06523792	-0.0811725	-0.04848248	0.041484915	0.09640623	-0.024791691	-0.0003063017	-0.026369492	0.024273766	0.031903245	0.0060814074	-0.0064477893	0.005620592	0.0006101505	0.05821694	0.093761906	0.031448018	-0.0123443585	0.008784585	-0.020209488	0.021915289	-0.045574266	0.11967206	0.13784838	0.08788423	-0.09699521	0.15954763	0.1502055	0.05014282	0.1313615	0.12409837	-0.003254201	-0.0022724315	0.023220122	0.16866732	0.08367447	-0.037933	-0.0644633	-0.0036544455	-0.044148862	0.07540723	-0.028891698	-0.085188255	-0.07464607	-0.071413614	0.0042368867	0.070225224	-0.03906797	0.089972794	0.06879737	0.032782394	-0.008686768	-0.011287759	0.121727586	0.04166663	0.14749433	-0.005824799	-0.03484334	0.016621849	0.13441649	0.042619295	-0.016181916	-0.010777103	0.016867358	0.018985221	0.044393517	-0.019245636	-0.037860565	0.06719664	-0.02402762	-0.079372175
0.041584507	-0.027204571	0.08136367	-0.026573056	0.027831998	-0.057980288	0.008844132	0.05458617	-0.036127906	0.086988635	-0.04300823	0.06777742	-0.045729652	0.026022034	-0.086136386	-0.047701944
0.044263437	-0.036298383	-0.01601032	0.037458602	0.026330454	-0.013590143	-0.001327158	-0.023696061	-0.0123860985	-0.018331496	0.02327192	-0.046471037	0.0359663	0.020391261	0.010794507	0.033326875	-0.0008744363	0.010826332	-0.03591785	-0.02089165	-0.029339354	-0.018592557	-0.0009859112	-0.014339748	-0.044813376	-0.032676093	-0.0025389616	0.006501914	-0.024783684	-0.024028085	-0.0009913883	-0.03626349	-0.015042091	0.013891725	0.036771692	-0.008122964	-0.03396293	0.029464217	0.0030431875	-0.017708829	0.03284609	0.0015365949	0.018744566	-0.008604686	-0.031385	0.049897883	0.036344927	-0.042068124	0.027833145	-0.01596484	-0.0046044015	0.03343728	-0.019464675	0.00657224	-0.018691711	-0.017726988	0.018138906	0.004697862	0.044372674	0.042453952	0.052326493	-0.016403437	0.03036226	0.08708956	0.035918403	0.0077181594	0.0004209616	0.014621915	0.060142238	-0.00015063274	-0.025807416	-0.010913706	-0.021756377	0.012507564	0.03640828	-0.02659771	0.018739374	0.0055548293	-0.04537666	0.0029966717	0.03650118	0.016569335	0.005771774	0.006396784	-0.03430426	-0.014000777	-0.04137008	-0.010077898	0.021317963	0.057568848	-0.050258923	0.005134135	-0.010517954	0.06145023	0.040736325	0.0010923537	-0.053084522	0.0032179982	-0.03120902	-0.06715346	0.04760994	-0.038911864	0.037254065	-0.036014557	-0.042660527	-0.0027085873	0.030926768	0.05476309	0.0367647	0.031639043	-0.030946475	-0.023832617	-0.02985681	0.010480604	0.040282167	0.014055789	-0.06659845	-0.006848666	-0.025331158	0.03620141	-0.037457775	-0.05143379	0.048388038	0.052882038	-0.003680228	0.018889846	-0.032379057	-0.05262516	-0.05837806	-0.013589926	-0.02250675	0.019553877	-0.01811654	0.023283754	0.017133303	-0.04374841	-0.045672193	0.03314664	0.06085528	-0.0036253259	-0.057657167	-0.062349204	0.01478589	0.044988208	0.027905596	0.011458848	-0.065498255	0.02463148	-0.0016162375	-0.0021961287	0.05479547	0.042858895	0.031399686	-0.012949131	0.019218681	0.0037903136	0.029300338	-0.049318653	0.035949204	-0.0031413727	0.028461918	0.0024340467	-0.033790138	0.007901899	-0.022346253	-0.007682443	0.03973328	0.0067485054	0.0009253274	-0.024416087	-0.005972819	-0.019261159	-0.010404866	-0.03801367	-0.031204702	0.008086941	-0.023978788	0.054602448	0.020004788	-0.024891485	-0.04002831	-0.014592209	0.04013968	-0.015679732	0.037473485	-0.027311727	0.02993192	0.038434003	0.01243061	-0.00804875	-0.0016468064	-0.004302155	-0.01382156	-0.037241627	-0.029056	-0.045750223	-0.049396317	-0.028137323	-0.05034882	-0.006987304	-0.029596543	-0.026937392	-0.032455012	-0.042681348	-0.033149023	-0.036957815	0.036402863	0.04250232	-0.017228788	-0.03363946	-0.007761906	0.015398244	0.03949721	0.0034292797	0.051178113	-0.0008965995	-0.033464212	0.020351099	0.041187584	0.027866695	-0.008161994	-0.028616777	0.0075143683	-0.011479779	-0.009607539	0.010246683	-0.03900138	0.037144404	0.02000801	0.023701241	0.028567445	-0.030654464	0.011826073	0.049360093	-0.009207805	0.0044227573	0.03343662	0.044305798	-0.024396935	-0.029672828	0.04146876	0.04372333	0.022470595	0.039865877	-0.0388196	-0.013531993	-0.00031459538	0.0058747795	-0.028255343	-0.019772459	-0.037805986	-0.0005190247	0.03616108	0.0636397	0.026387269	0.0039156238	-0.00012848785	0.007077247	-0.0013099306	0.06881482	0.0010822595	0.009019088	-0.012054369	-0.03041942	-0.027378593	0.020625575	-0.03273697	-0.020714002	-0.017192421	-0.025214404	-0.037891276	0.03340212	0.009539041	-0.018953994	-0.015608988	-0.02584882	-0.04609247	0.02674987	-0.023411943	-0.009025292	0.011664011	0.03537601	0.06913184	0.03537824	-0.0028782748	-0.049065657	0.004277592	-0.021982314	0.02829193	-0.00244287	0.03115246	-0.03741221	-0.0020585728	-0.023718001	0.027418755	0.009507256	-0.021955593	0.042053528	0.04396594	-0.042740576	-0.001718613	0.011414969	0.0076099914	-0.025848258	-0.0024421436	0.025538966	-0.010849846	0.03962261	0.014405156	-0.020059135	-0.05002756	0.009267046	0.02995577	0.011651454	0.059634596	0.008082726	0.0017971884	-0.048460964	-0.008854496	0.01543326	0.0057778955	0.00018340012	-0.04582338	-0.04331209	-0.026926136	0.00975845	-0.0077367225	-0.042880338	-0.017029792	0.022430396	-0.028901815	-0.015979301	0.045842677	0.02847254	0.01334387	0.033114642	-0.0069616716	0.030711	-0.037614852	-0.031026023	0.020843104	0.041728742	-0.021970756	-0.045652937	0.027710171	-0.032739513	-0.029007286	-0.038050357	0.0025596418	-0.035106525	0.023771862	0.03562996	-0.0024339408	0.01783143	-0.043574996	0.017192764	0.0051244292	0.0027033498	0.04910514	0.03146468	-0.056116134	0.014756009	0.04662947	0.05114056	0.016921347	0.0076036486	-0.04161028	0.030689377	0.03714631	0.0038883819	0.018176068	0.02009322	0.03951819	-0.017800044	-0.005185005	0.02391313	0.040147696	-0.018028334	0.017203504	-0.038029477	0.047931552	0.019310195	0.054981798	-0.010589536	0.045860272	0.028499838	-0.04289518	0.006366089	0.00796908	0.014216501	-0.010540188	-0.045857295	0.009250293	-0.008973631	0.056375228	-0.0060411175	0.017360652	-0.021545677	0.01708739	-0.011412061	0.04632538	0.022183744	-0.026320376	-0.01675801	0.01711029	0.050206352	-0.029432986	0.018863592	-0.009676138	0.049302086	0.049241047	-0.0002189556	-0.041635625	0.026517158	0.024105327	0.044479314	-0.007960018	0.039443165	0.00879667	0.00054903567	0.00033338324	0.02387583	-0.020068606	0.006050869	0.029826337	0.029594565	0.044047736	0.029439205	-0.033881888	-0.0027768994	0.048373323	0.038167268	-0.0034618506	-0.0035036886	-0.030770753	-0.005419012	0.03591346	-0.025770672	-0.05452843	-0.022681333	0.020312462	0.034213938	-0.035449672	-0.04204088	-0.02148178	-0.006393559	-0.04239093	0.001087292	0.009797493	0.010495814	0.0505667	0.031422634	-0.012127828	0.015915658	-0.036337737	-0.029068848	0.04550843	0.051864486	-0.06981557	-0.04336723	0.036068372	0.060123608	0.013992442	-0.051538162	-0.032904055	0.0057014306	0.059788406	-0.029695809	-0.07520329	0.0016016087	0.030736987	-0.03459266	-0.031386517	0.0471945	0.08337635	0.046581242	0.016719913	-0.002714616	0.03646927	0.02000586	0.007078825	0.05608599	0.057886038	-0.00097112026	0.0127719175	0.012342492	-0.03662639	0.038999885	-0.050729726	0.022178357	-0.015039946	0.005635384	-0.06243036	0.005722569	0.030933872	0.03570011	-0.034469854	-0.0056144753	0.020597337	-0.027009439	-0.016195033	0.009347817	-0.016889067	-0.011674735	-0.041551054	-0.002020742	0.057761084	0.014236878	-0.0038694376	0.042692654	0.05478267	0.011747691	0.022492483	0.017335674	0.02273322	-0.037921935	0.03791086	0.030064309	0.021239169	-0.019177878	-0.051065758	-0.012470595	0.039962925	0.0082259765	0.018978707	0.039474044	-0.021276714	0.012223394	-0.025274485	-0.00843416	-0.025162965	0.032302566	-0.02959508	0.01567744	-0.030263398	0.018747495	0.046093103	0.0028233146	-0.02333033	0.027324354	0.01219708	0.011820211	-0.045937426	0.023202527	-0.020368187	-0.026315972	0.038822085	-0.02575384	0.027211027	-0.037474643	0.046990156	-0.03300213	-0.0031665515	-0.010851658	0.0031080288	0.0092731565	-0.012527444	0.029502934	0.050108366	0.035350252	0.01247705	-0.011294368	-0.007331924	0.04900847	-0.05239981	0.0049250266	-0.019870583	-0.015615788	-0.01581251	0.038303018	-0.039667804	0.0052324645	0.010957736	0.011061276	0.050245594	-0.018906636	0.018121254	-0.01620621	0.056538753	0.053489387	0.030051706	-0.01267157	-0.035579294	-0.012151659	-0.012655326	0.014115412	-0.037817337	-0.046701614	-0.025324766	0.011396029	-0.027187383	0.009910183	-0.005371906	0.014872728	-0.014007953	0.027009083	-0.05625019	-0.039667178	0.01775654	0.047601048	0.021278458	-0.032044493	0.032485206	0.043779105	-0.031813394	-0.032571055	0.032766286	-0.04287532	-0.017565303	-0.00999047	-0.0004641277	0.024092156	-0.015905105	0.012298636	-0.038187683	0.021974284	-0.037304822	0.039414026	-0.004188478	-0.0070737572	0.016624667	-0.008395508	0.01020786	-0.011152399	-0.02629318	-0.040374268	0.048858445	0.0018145925	-0.011170866	0.045854717	0.017550826	0.017750727	-0.014010395	-0.03148988	0.036875	0.0028590441	0.00494236	0.0162893	0.0045378353	0.03088483	0.01738048	-0.039362688	0.0061926567	-0.029273015	-0.023670277	0.020162407	-0.049426164	-0.038590163	0.04576673	-0.036611766	0.0045109303	-0.0052572703	-0.0028695634	0.024413997	-0.015501523	0.0044108415	0.007879702	-0.05474145	-0.010450626	0.033272028	0.026222616	-0.0041481513	0.034251533	0.034724746	-0.0010360518	-0.0036848441	-0.06141846	0.005433505	0.021463556	0.024238534	-0.025732383	-0.04645756	0.058081787	0.007457402	0.02067457	0.026068393	0.0071219285	-0.038608182	0.02628428	0.029437194	0.019590292	-0.036371715	-0.012384447	-0.048782445	0.041215084	0.048343763	0.0010293793	-0.00026491284	-0.03347253	-0.039143164	0.019974219	0.007408955	0.0063485852	0.0493007	0.006758713	0.03590832	-0.056581654	0.011346472	0.030245433	0.036103938	-0.03518608	0.014573112	-0.029335449	0.038897645	-0.018362876	0.0031189877	-0.028914064	-0.028030809	-0.033025395	-0.030298017	0.0015492735	0.02424729	-0.039946724	-0.03621677	-0.04804052	-0.033443447	-0.021925392	0.01222014	0.01543259	-0.020733327	0.05190073	-0.048015658	0.03560483	0.034640167	0.04024537	-0.035644356	0.044342406	-0.033185635	-0.022006104	0.043118987	0.016517429	0.0038162936	-0.0476095	-0.03095523	-0.019422704	-0.048456363	-0.0315477	-0.03251915	0.03730826	-0.039072357	-0.04482529	-0.06058885	0.014035429	-0.040379208	-0.041189	-0.04024024	0.007382186	0.045056023	0.040446963	0.03285474	-0.015255779	-0.006299362	-0.028128475	-0.039339703	0.035787348	0.013634903	0.0039584534	-0.04970056	0.033292264	0.029403351	0.027852658	0.0021018682	0.026806131	-0.057448845	-0.007790114	-0.03791688	-0.030323738	-0.034193374	0.034050405	0.044522904	-0.0049911775	0.007931675	-0.03158976	0.006452653	0.055797495	-0.018003266	-0.036009643	-0.05352835	-0.03648601	0.053577445	0.063865386	-0.002253972	0.008545702	0.0119524095	0.056979593	0.059918325	0.055132974	-0.051992007	0.027185597	0.055282813	-0.00029726257	-0.036086846	-0.042196006	0.013009601	0.043382395	0.019349411	0.012109626	0.04020501	0.00023795104	0.022914983	0.039772253	-0.02444309	-0.028555483	0.023151217	0.029170005	-0.024709223	0.0087557435	0.009304241	0.040266182	-0.04192248	-0.013895715	-0.013187884	-0.03552092	0.031103117	-0.0365983	-0.033833273	0.04911868	0.037109617	-0.017364284	0.017192017	0.037907604	-0.049776558	0.031264007	0.008703609	-0.032921556	0.016943997	-0.041625503	0.012547614	-0.005000487	-0.026138464	-0.039083365	0.011018288	0.049661968	0.0416044	4.6607318e-05	-0.010629308	-0.014262762	-0.0058480976	-0.019696785	0.018617207	0.03007451	0.022674467	-0.008721935	-0.013111574	-0.0221322	0.03648108	-0.0061571957	-0.033286124	0.036364462	-0.018747333	0.04987516	-0.02693329	0.039431725	-0.01990617	0.012514703	0.016930282	0.0040010004	-0.039088048	-0.0015572086	-0.041720245	0.036978498	0.054582387	0.0029393255	-0.057393603	-0.033404965	0.03179628	-0.048422355	-0.039242376	0.009412985	-0.04284797	-0.033334557	0.017361006	0.017349344	-0.028009623	0.009049613	-0.025858153	0.03560301	-0.017299594	0.017717743	0.037226763	0.005429683	0.031037483	0.05115903	0.050731473	0.0019968352	-0.036315497	-0.03992845	0.026316838	0.0035522743	-0.037309136	0.027214857	0.004775842	-0.019947497	0.045026254	-0.01231415	-0.01860589	-0.017089136	-0.010607383	-0.0013917944	-0.010982453	0.015307411	0.0072801574	0.011846564	-0.031394176	-0.051973782	-0.003252583	-0.012780609	0.0501065	-0.033480898	0.0006225035	0.0012910443	-0.024214465	0.032583073	-0.013161656	-0.026142936	0.0058872197	0.017871205	-0.020554403	0.0029237773	0.04038649	-0.024798602	-0.048521638	-0.03432543	-0.046825048	-0.0037530498	-0.038583748	-0.0282675	-0.00033641164	-0.038667347	-0.044985455	-0.05021713	0.027646737	-0.040139087	-0.03075065	0.0180881	0.007827404	-0.028525453	-0.042259675	0.018687872	0.0042876466	0.028861443	0.04084751	-0.01079258	-0.04280854	0.04417249	-0.022649175	0.006842907	-0.003839163	-0.035027858	-0.029110754	0.039278038	-0.020668488	-0.042518903	0.042905018	0.021778265	-0.015099151	-0.04574063	-0.008753548	0.011096375	-0.0016424537	0.010916864	-0.021771912	0.0025822204	0.015759986	-0.008230533	-0.028820597	0.040733602	0.030542247	0.021012032	-0.010685705	0.00027723907	-0.034032684	0.007116214	0.027617943	0.017273745	-0.029230166	-0.042826816	-0.048570495	-0.054792233	-0.027875233	0.023501778	-0.016250415	0.033318296	-0.0030313986	0.054852124	-0.015458346	0.038238075	-0.03682972	-0.03200179	0.022681326	0.01064974	-0.013503422	-0.0029569983	0.024430297	0.05475885	-0.03837978	-0.027279472	-0.0487005	0.03993774	-0.018711504	-0.010862027	-0.034337573	0.044360906	0.0005077494	0.024507133	0.017793907	0.05529005	-0.006923576	-0.013919517	-0.024415039	0.04017276	0.040567026	0.017184233	0.03553589	-0.03266077	-0.029134493	-0.00038523474	0.033407032	0.03495583	-0.010271515	-0.006368065	0.041726824	0.010406695	-0.013654572	0.017552719	0.006060621	-0.022159966	-0.02407122	-0.009476804	-0.037050754	-0.034197945	-0.039189123	0.027714407	0.009510086	-0.036745835	-0.029013056	0.02171105	0.047522195	0.03489871	-0.020243818	0.0063054934	0.02673028	0.05349762	-0.02336496	-0.017962161	0.036327627	-0.040704735	0.04545214	0.01594258	0.026423918	0.038368147	-0.039168417	-0.04896111	0.023089102	-0.006207579	-0.0056506284	0.027113885	-0.055229418	-0.020037765	0.048705954	-0.033101317	-0.005112718	-0.043387882	-0.018332513	0.015035452	-0.048762262	-0.042553365	0.04292663	-0.039634295	0.012048424	-0.04601841	0.005287946	0.049887788	-0.006791064	0.041360855	0.01768473	0.053081986	0.020918168	-0.007627704	0.025799053	0.025001567	-0.046268973	-0.021122318	0.023851762	-0.009500743	-0.025423337	0.034209933	0.01041283	-0.0041921358	-0.03724089	-0.040624507	-0.0383615	-0.05688236	-0.041232806	0.045539245	-0.021815851	-0.031483978	-0.0007494819	-0.007161822	0.029914696	0.045000136	0.0053186864	0.048767883	0.04997361	-0.016478183	0.048102956	-0.012507789	-0.009869588	-0.024568528	0.020726983	0.043744937	0.046355125	-0.023195956	-0.030761871	0.050525807	-0.04839783	0.014362282	0.035857692	-0.027097423	0.047283147	0.032782324	0.00088406546	-2.6297612e-05	0.0033684028	-0.004588057	0.02691326	0.049169708	-0.01169721	-0.032064784	-0.041391216	0.020726925	0.028777022	0.018133346	0.043057304	-0.014623736	0.02974832	0.04119067	-0.00083236763	-0.010740325	0.029205028	-0.010847581	0.011756804	0.031526394	0.011890416	0.027944947	-0.034909673	0.033242043	-0.0073347897	0.025349598	-0.033210054	-0.039158907	0.019990675	-0.037395746	0.04665996	0.009911674	-0.0033492348	0.044573385	0.03120977	0.040290054	0.04131447	-0.022023875	0.00927951	-0.026081009	-0.00151614	0.0027812538	0.025940914	0.02106893	0.007157386	-0.010110602	0.00508341	0.024278218	-0.02217916	-0.029725296	-0.0014586573	0.019271696	-0.016085956	0.028579824	0.019331334	-0.04411837	0.0037296396	-0.016982455	-0.040387586	0.04009478	0.0046971054	0.017755602	0.027167734	0.03861859	-0.006048803	0.021600708	-0.00081105216	0.0024474396	0.039961375	0.027667107	-0.046310227	-0.013528775	-0.042538512	-0.004392533	0.016612705	0.03483845	0.021460706	-0.018023731	-0.063330464	0.016436646	-0.0058526816	0.035177015	-0.013755701	0.011320136	-0.031927373	0.04361977	0.055936515	0.03817784	0.026410792	-0.0063654026	0.004583395	0.031879894	0.025318852	-0.062199757	-0.044455796	0.016254367	-0.015527903	0.028898729	0.0036034363	-0.008916315	0.027928606	-0.019615324	-0.013736691	0.019974208	0.01780901	0.01846031	-0.006901306	-0.015335763	-0.0102389725	-0.008283029	0.002958263	-0.009801121	-0.013855045	0.052635953	-0.051997904	-0.022697562	-0.033480402	0.030295556	-0.0413579	-0.016660161	0.024491644	-0.04785308	-0.028845893	-0.03719133	0.040580716	0.002598824	-0.016503064	0.06017748	0.051894467	0.028270766	0.034337424	0.011298618	0.0032875594	0.053539686	-0.02408341	-0.04476964	-0.02132844	0.03105922	0.08811176	0.037662372	-0.00047488007	-0.072409436	0.06453222	-0.027752126	0.04914425	0.011893939	0.04837782	-0.020868877	0.010023252	0.04375404	0.0016672632	-0.0033750194	0.016340125	-0.044089768	-0.040848486	0.043108597	0.02408987	0.00346424	-0.043566376	-0.010985409	0.085462235	0.024413481	-0.027204126	0.006344963	-0.01778893	0.05576936	0.033757396	-0.053908337	-0.00059215183	0.03919626	-0.024720583	-0.03429785	-0.042558625	0.019275686	-0.015915023	0.0022642936	0.017590066	0.025820825	0.0155768925	-0.058690306	-0.0322785	-0.023008471	-0.031906947	0.040176723	0.04263012	0.00034629638	0.03936181	0.02934693	0.014172529	0.014029289	0.053340316	-0.022349363	-0.038423326	-0.0015629866	-0.016704151	0.05910051	-0.03676349	0.015987258	-0.03155155	0.06914884	0.056143865	0.016912706	-0.01846034	-0.053509157	-0.04865598	-0.018051002	0.04232544	-0.04104402	-0.058222566	-0.012378625	0.05508642	0.012152612	-0.05482076	-0.017234148	0.024725929	0.05447063	0.057632007	0.0016559338	-0.009685794	0.041827932	0.007552979	-0.02464049	0.033475626	0.038849063	0.019956753	0.010850251	0.023202084	0.00492651	0.0058149556	-0.04691676	0.020876782	0.04090981	0.039143227	0.038303584	-0.045946877	0.04670455	0.0436832	0.013229005	0.05058779	-0.011640469	-0.022182934	0.038359985	0.0015635395	-0.02169261	-0.010024535	0.036229167	0.010286322	-0.027562356	0.039903868	0.04192982	-0.034116592	-0.051616076	0.052996907	0.04045447	-0.026579142	-0.08146408	-0.011712226	0.061558306	0.013648345	-0.025707107	0.009444407	0.017338606	-0.034641437	-0.030444901	-0.009405536	0.01645804	0.053412244	0.03922982	-0.04752311	-0.01541918	-0.0457691	-0.05154124	-0.034705717	-0.022850422	-0.045509066	0.029966986	-0.0066124382	-0.024084287	0.029598279	0.0126915015	0.008565266	-0.04084661	-0.05552378	-0.013587963	0.016257927	0.047743425	0.05541999	-0.036238678	0.028763603	0.03582093	-0.026442625	0.053442977	0.03690669	0.038416598	0.010173865	-0.015110156	-0.020516086	0.042278685	0.019007746	0.04879127	0.050974187	0.05564058	0.026408682	0.017653951	0.024024384	0.04012359	-0.029602256	0.010666475	0.03421834	-0.027910229	-0.025581826	-0.03296803	-0.025021505	-0.026113	-0.007235405	0.034766644	-0.0076189367	-0.011960676	0.006579617	-0.0069548525	-0.034209803	-0.032525886	-0.011400705	0.026179552	0.0468924	0.026757156	0.015702102	0.038233828	0.0521748	-0.029962687	0.015975237	0.023056552	0.069353655	-0.058516152	0.011620384	-0.036430895	0.020618897	0.0748882	0.05612455	-0.03370498	0.016204206	-0.020331433	0.03662147	-0.007833832	0.02312479	-0.0581167	0.04164243	0.013850703	-0.02373238	-0.010861313	-0.062521614	0.01420724	0.011495891	0.0015400181	0.017426396	0.0835998	0.017835895	0.033141546	-0.0071944655	-0.011468193	0.04725974	-0.02781004	-0.02105195	-0.029202605	0.018646704	-0.013008056	-0.023675324	0.039700758	0.03451423	0.017723488	0.052797746	-0.011760348	-0.0357528	0.046582665	-0.015205742	-0.075403176	0.007119223	-0.030024504	-0.023457628	-0.040268723	0.020211311	0.0043990836	-0.012705939	-0.04434231	-0.022032209	0.056782987	0.005639748	-0.056514617	-0.021001909	0.043033257	0.028977387	0.042170484	-0.00023546479	-0.04064235	-0.011742435	0.020062437	0.03348197	0.024380326	-0.04468457	-0.005986207	-0.021930708	-0.0047358633	0.05982421	-0.00094192603	-0.03310736	-0.043837264	0.015822168	0.006948841	-0.034148984	-0.04380911	-0.030166248	0.0011806441	-0.030605903	0.019806117	-0.028925927	0.019328976	0.018874237	0.022337195	0.016448312	-0.0055331285	0.02600212	0.0018121206	-0.006690957	-0.005364537	0.0015028191	-0.00866146	-0.012051365	-0.028378885	-0.014453415	0.011924542	-0.039040383	0.0009453598	0.054134276	0.031340774	-0.033971522	-0.024512757	0.00024076371	-0.0056452537	-0.04552202	0.026975747	0.07252589	0.019831784	0.008345473	0.006272948	0.0166848	0.029872252	0.021794714	0.004568477	-0.0035475977	0.031147568	0.03783988	0.003087478	-0.007822208	-0.055346113	-0.017018853	0.000944534	0.0086870855	0.026450235	0.02679282	-0.059842043	0.015689265	-0.012713186	-0.027513238	0.004917088	-0.00016634598	0.05219698	-0.01681212	-0.05141143	0.039594725	-0.028544331	-0.01683806	0.039349284	-0.007225597	-0.017761564	0.021153005	0.02861937	-0.055975273	-0.0062508555	-0.065212734	-0.034603316	-0.044099968	-0.03649136	-0.038705394	0.008453294	-0.04542902	-0.030056778	-0.03554152	0.058213875	0.042127915	0.04220987	0.046505455	0.048046507	0.00064689707	-0.020521106	0.031951416	0.07513553	0.06193828	0.026725376	0.041481845	-0.006336562	0.020372603	0.017766397	-0.0048740595	-0.023325197	0.01582902	0.025470981	-0.017063849	0.018183919	-0.019028684	0.025048932	0.0152243795	-0.047548175	0.00031435015	0.020971637	0.0033342298	-0.032673616	0.042554576	-0.024784544	0.021902166	0.034965035	0.0009039391	-0.040307477	0.005281502	-0.023593515	-0.038740914	-0.028972385	-0.0071774633	0.007855922	-0.068524174	0.0066520353	0.047740914	0.029792247	0.034177333	0.030302366	-0.020539464	-0.026740095	0.067386724	0.030715656	0.07261887	-0.0031808517	0.028105704	-0.031471096	0.050746977	0.0027130942	0.013956063	0.032933857	0.051578462	0.01713383	0.010891039	0.00612987	-0.038495965	-0.0136945285	-0.055538867	-0.06895117	-0.084450535	0.005687099	0.031227713	0.019281354	-0.055788953	-0.087006554	-0.046353716	0.009178142	0.03627785	0.05845729	-0.068368144	0.016291644	0.009163804	-0.024516163	-0.04248801	-0.017971646	0.013917538	0.052394092	-0.0010365436	0.020561783	-0.04506382	-0.04632742	-0.056758165	-0.031937953	-0.04414112	-0.065621905	0.008467918	-0.059366297	0.03765755	-0.0058227163	-0.001179196	-0.023044342	0.025196563	-0.01494785	0.02481132	0.05453741	0.023961326	0.06604828	-0.023188815	0.000822805	-0.022382142	0.066170715	0.010226011	-0.039238665	-0.055046618	0.0236223	-0.02079046	-0.02008041	0.020592403	-0.08776114	-0.08827175	-0.09306203	0.03529995	-0.0046886974	-0.05477601	0.015691606	-0.053958245	0.00847813	-0.02179579	0.023756031	0.055537205	0.010257335	-0.026022004	-0.04292354	0.047962632	0.010773149	0.020882143	0.042190846	0.0040459195	0.034838866	-0.054717503	-0.047425844	0.043103993	-0.0020829318	-0.024945978	-0.022354627	0.0026890382	-0.0659552	0.01457406	-8.081203e-05	-0.020460377	-0.015404476	-0.026896909	0.0011270202	0.009402784	-0.0023760404	0.0051189726	0.021409031	0.034098346	-0.042970713	-0.04124791	0.031218858	0.022017067	0.013062381	0.002594081	-0.016821599	-0.028444838	-0.03128733	0.049218282	0.041512534	0.015078039	0.032348767	-0.0252739	0.034595903	0.018577632	-0.0012845836	0.07945946	-0.049992822	0.031497378	0.00039479294	0.00011116082	0.050937373	0.015091852	-0.019985486	0.0078534335	0.02972357	0.006871175	0.04885056	-0.05170126	0.047826093	-0.0059501096	-0.0055743367	-0.009170499	0.04939806	-0.0058608507	0.015478816	-0.048712585	-0.025137542	-0.0068082395	-0.01385122	-0.012453804	0.034104634	0.04793811	-0.017312335	-0.031687923	-0.0109584015	-0.017167723	-0.031004213	-0.02306763	-0.022806067	0.023998419	-0.008839259	-0.02855115	0.0040964494	0.029478915	-0.016108155	-0.020015415	0.036771525	-0.014825133	0.036111515	-0.02534218	-0.003512162	0.05461685	-0.018710498	0.01956965	0.06813068	-0.0052954154	-0.023686498	-0.013129582	-0.032595158	0.037547845	0.040368162	-0.03525134	0.037640743	-0.038916018	0.04570638	0.026157388	-0.041044395	0.023939498	-0.025858138	0.010647325	-0.023594085	0.015954962	0.03391339	0.051486272	0.08946179	0.03193677	0.03766332	0.07562762	0.03736667	0.0134623945	0.045561578	-0.011133099	0.024625259	0.02818063	-0.013233188	-0.011732301	0.018860813	0.046126794	0.011778773	0.052721042	-0.032519944	-0.0011502559	0.021966748	0.0007681193	0.023213146	-0.010178837	-0.012054161	0.0076450584	0.031096848	0.006453035	0.0033458495	0.024439305	-0.020781564	0.07184914	0.049035233	0.015055122	-0.026165415	0.017648691	-0.02599608	-0.053480726	-0.02731351	0.053243127	-0.014269649	-0.035648063	0.006778218	0.03829509	0.022793993	-0.0035761192	0.024123305	-0.02129864	0.017344968	-0.045260742	-0.05461323	-0.05245963	-7.9177866e-05	-0.054114122	0.008203065	0.017155228	-0.01135785	-0.055738978	-0.040830977	-0.033544257	0.020649007	-0.043009296	-0.023521628	-0.013293797	-0.05464068	0.007679405	0.008334074	-0.0039957776	0.03144125	0.039513446	-0.029312875	0.023602616	-0.0113679785	0.02274804	0.0029940184	0.052944668	-0.013275982	-0.0006286882	0.025981652	0.018723883	-0.028703235	0.016314298	-0.0016149316	-0.032033842	-0.032663397	-0.033650167	-0.036437947	0.008166166	0.040058885	-0.010969946	-0.039646234	0.049748886	0.020566864	0.010790207	-0.032008357	0.031035118	-0.024226682	-0.068796106	-0.047004074	0.030018192	0.014763339	-0.047992796	0.0044988366	-0.054892536	-0.036920637	0.068455115	0.022325015	-0.01661396	0.003059553	-0.01933628	0.04947789	-0.04912759	0.061584678	0.06993559	0.026946241	-0.032702193	0.0053524794	0.02482428	-0.048975974	-0.012642087	-0.02249127	0.015656274	-0.00080862903	-0.041597117	-0.02124789	-0.03445678	0.011951257	-0.018483106	-0.078656256	-0.0050103148	-0.027174842	-0.025663452	-0.04281953	-0.029215926	0.016396347	0.045139413	0.06822613	0.033526294	0.032591093	-0.014104294	0.015864892	0.045079462	0.04028763	0.06526233	-0.002575343	-0.02347833	-0.024873108	-0.0456616	0.034837883	-0.003197577	0.00579977	0.0030777848	0.032349333	0.009040035	-0.006142892	0.04250393	0.05753168	0.041859698	-0.006438849	-0.010281582	-0.02532711	0.057323452	0.06403431	-0.0014755293	0.030271448	0.017181266	0.03356464	0.031719916	-0.020975897	-0.023212463	0.024418974	-0.029317357	-0.018061932	-0.038900014	0.0027190489	0.043659512	-0.023794722	0.034660712	0.0043609925	-0.024895173	-0.039319996	0.045242965	0.032872804	-0.04175762	-0.0054762405	0.0033753645	0.017262587	-0.006079947	0.01088606	-0.025611905	0.036890533	-0.020108098	0.008458539	-0.002102453	-0.011686621	0.02204492	0.012935891	0.0017205623	-0.016571846	-0.011544166	0.01029358	0.023939738	0.03730478	0.027387384	0.07956579	0.012661001	0.033684354	-0.016895732	0.06352358	0.08444854	-0.017559834	-0.034147877	-0.013017448	0.031459577	-0.011297471	0.0010001798	0.0391417	-0.054215424	-0.007280377	-0.0029887385	0.0062039928	0.037328668	0.026892167	0.02908176	0.012894934	-0.03134268	0.006425032	-0.026986267	-0.039419316	0.03816158	-0.0070663346	-0.016785014	-0.079155445	-0.008773565	0.008109222	0.08232904	-0.010582931	-0.026954522	-0.011935443	-0.025479699	0.09217838	0.023598067	0.019700376	0.0025843005	0.014650554	0.008772725	0.048755404	0.036687918	-0.05425352	-0.045153443	0.04877182	0.04025367	0.032940965	-0.034808103	-0.01862374	-0.008780053	0.023010392	0.04721528	-0.0061613964	-0.022039369	0.03433535	-0.02739707	0.037856955	0.036448237	-0.0010905208	0.0408321	-0.03446624	0.026524296	0.03907052	0.05199852	0.0019398321	0.024701241	-0.028547814	-0.011638793	0.0053129434	0.043024946	-0.028771237	-0.026983295	0.008851362	-0.021348355	0.07325031	-0.022984734	0.040921956	0.02909693	-0.00076860725	0.08007698	0.049720798	0.021993741	0.031370413	0.047733303	0.049751777	-0.017549822	-0.010308908	-0.032000422	0.039383598	-0.040652044	0.0063628424	-0.022753207	-0.00428125	0.030160734	-0.0019168712	0.010963849	-0.011924588	-0.008290772	-0.02560632	-0.043108255	-0.01203062	-0.025237186	0.033365104	0.011269813	0.030350054	0.03677248	0.04791882	0.031728275	2.4939113e-06	-0.046897568	0.04620822	-0.017885456	0.0018872458	-0.041437563	0.0017179692	0.01631221	-0.0020394241	-0.04268302	0.024303893	-0.0016756011	0.08055569	-5.414714e-06	-0.051697943	0.021710712	0.028073175	-0.011758887	0.019577738	0.008046281	-0.07079916	-0.04669971	0.03481497	0.073358364	-0.030533405	0.03158196	-0.025560247	-0.026372174	0.08074234	-0.0093142195	0.048853755	0.060548585	-0.031923994	-0.009024828	0.063287914	0.015694221	-0.009752926	-0.0022738064	-0.022874584	-0.046398252	-0.035536576	-0.018456168	-0.03375429	0.04037694	-0.047727767	-0.031788588	0.061655026	0.041811608	0.010324058	-0.030358814	0.018477721	0.026700003	0.050674345	0.0145790605	-0.028350195	-0.024766978	0.029483272	-4.1820404e-05	0.014075961	0.033619862	-0.02933965	0.03127939	-0.010313396	0.007632457	-0.019899	0.018517122	-0.011948545	0.025426848	-0.033390287	0.0009487006	-0.02831291	0.06923858	0.0028726442	-0.011913822	-0.030074142	-0.056360636	0.0064753713	-0.0012018578	0.04907482	0.050740164	-0.03648527	0.022909975	0.006420002	-0.016659629	0.019806061	-0.013014863	-0.019887561	-0.011699034	-0.02419106	-0.019076757	0.017934205	-0.01408619	-0.012263919	0.019846516	-0.043333	-0.021806434	0.011108089	-0.038405236	0.02494835	0.018089563	-0.038374938	-0.068995476	0.06507164	0.018630242	-0.027333383	-0.018367002	-0.06795358	0.07455054	-0.012649526	0.029751834	0.04043451	0.0012905898	0.00044704525	-0.044430222	-0.032358017	-0.0033672433	0.047020108	0.03532047	0.02264753	-0.0039904094	-0.028809506	0.0100402925	-0.047089398	-0.029658232	-0.018339388	-0.058661934	-0.027560147	-0.003028807	0.032239333	0.043534543	0.018774578	-0.0023733464	-0.024441263	0.059687216	-0.017827716	-0.018964564	0.02305911	-0.04021827	-0.02702913	-0.051603954	0.041085653	-0.020880729	-0.004712767	-0.0006066993	-0.02979684	-0.0068865363	0.030907141	0.01621879	-0.027791245	-0.038257685	-0.019558845	0.052904606	0.012873231	-0.041669205	0.04701406	-0.007946006	-0.006970265	0.02581932	-0.024987817	-0.036775038	0.0076466314	0.027640792	0.028033795	0.040433478	0.0033081493	-0.012115018	-0.027430033	0.07030694	0.045751903	-0.052012235	-0.06748841	-0.024552101	-0.030278167	0.05744069	0.007227444	-0.021445075	-0.0332547	-0.044356413	-0.016741622	0.021575227	0.057125214	0.023226053	0.019322224	0.026870774	-0.011927187	0.027603846	0.03846572	-0.06023157	0.03173418	-0.0071236016	0.027105859	-0.014322091	0.014181813	-0.05198881	-0.03201888	-0.043332387	0.00012971349	0.018049167	0.055624764	-0.016341299	-0.001307046	0.020448046	0.0055073127	-0.036813773	0.05222336	0.0021310148	-0.018702267	-0.022656675	0.032042336	0.067426994	0.021737343	0.0450107	-0.0064367545	-0.018206598	-0.012673711	-0.015069491	-0.023455648	0.01594684	0.004879184	-0.041239806	0.03045471	0.022419013	0.013213902	0.027233703	-0.042594634	0.033087946	-0.0109650595	-0.005820217	0.014366152	0.027495215	-0.002904954	0.05814271	-0.022673374	0.016332785	-0.011671879	0.037624262	-0.011474193	0.05796736	0.05994852	-0.018216627	-0.051367957	0.0041135284	0.0119578205	-0.01314141	-0.02011207	0.007881058	-0.009365905	0.044150975	0.0004167216	-0.02303983	0.028553084	-0.02407098	0.04337337	0.01672628	-0.023364382	0.040802497	0.01049306	0.007645766	0.008019817	0.034472626	-0.021534111	-0.017530186	0.038399555	-0.032174427	0.008318719	0.045900833	0.0159466	-0.039994877	0.005247086	0.0012042886	0.021043759	-0.048620846	-0.03542094	0.023784755	-0.04363256	-0.01775102	-0.0067789336	0.018548017	0.019338923	-0.03548305	0.025748035	0.031836923	0.01675728	0.031881955	-0.02625772	-0.03271805	0.009496204	-0.047024094	-0.08251903	-0.07810871	-0.014327389	-0.030584214	-0.048119128	-0.00888002	-0.021985814	0.03027128	-0.02267945	0.004723776	-0.017993439	0.023502957	0.01652991	-0.01761896	0.0080191605	0.02137313	0.046505168	0.023131711	-0.01665744	-0.0013485632	-0.02897701	-0.021568993	0.010415742	-0.018350111	-0.0010652369	0.043630727	-0.06932618	-0.006353563	0.020742472	0.018243168	-0.017614517	0.013009183	-0.067050986	-0.008923839	0.0047019003	0.0034662434	0.034336727	-0.03897613	-0.014829886	-0.02135632	0.023895057	0.010828387	-0.040640086	-0.05061338	-0.03058824	0.031910412	0.0036989353	0.006097934	0.0464644	0.008429554	0.059821203	-0.0011705755	-0.028474312	0.013252508	0.0068224855	-4.3662574e-05	-0.015242839	0.027235473	-0.023853336	-0.019318163	0.026044445	0.06172269	0.040215105	0.036800288	0.037257273	0.040746477	0.007345884	-0.017730031	-0.01872706	0.015443518	-0.032008518	-0.010306549	-0.0059719793	0.023813287	-0.010249376	0.00053642085	0.019608717	0.0028991157	-0.008984625	0.006341083	-0.075705014	0.004936241	-0.0021396657	-0.04548389	-0.01770228	0.02891488	-0.010338555	-0.03345421	-0.00533588	0.020980246	0.056606837	-0.04979566	-0.018172741	0.023951247	0.024546718	-0.0124042	-0.0039896644	0.030191693	-0.00037193391	-0.0053679915	-0.010138595	0.030246565	0.007311254	-0.0051404187	0.017952533	0.04748356	-0.038337752	-0.02918556	0.037193194	0.0060780686	0.006335899	0.05281775	0.010889504	-0.015109493	0.048856933	-0.03037664	-0.025201501	-0.043293037	-0.053229824	-0.017873397	-0.0025620204	-0.017298426	-0.047403384	-0.028466782	-0.018965498	0.01277694	0.032238107	0.042725626	0.031429242	0.013589201	-0.024362937	0.049717084	0.05480395	0.055729806	0.039945737	-0.042919975	-0.04202655	-0.040974155	-0.03270843	0.0037812607	-0.012880966	-0.0044038356	0.022130838	0.037982013	0.018359276	0.038369056	-0.04379508	-0.0023949768	0.02050926	-0.032471225	0.042440746	-0.026205286	-0.0173828	0.0040756166	-0.03593264	0.01882932	0.009004498	0.03841446	-0.008170826	-0.03363016	-0.008765852	0.041597012	-0.03764273	0.014043383	-0.038085666	-0.013826809	0.03288162	-0.045361843	0.029861398	-0.009610185	0.042398464	-0.024777947	0.016953478	-0.036671665	-0.016020246	-0.0025247724	-0.024380075	-0.04972556	-0.007195211	0.020016318	-0.005118737	0.04242403	0.030967746	0.0031288515	-0.028600018	-0.025918419	0.034983866	0.035732042	0.040107507	-0.021918563	-0.044646725	-0.01479194	-0.031367525	0.056060314	-0.04424879	-0.0445768	0.027978793	-0.009801262	-0.038329955	-0.021549484	-0.021521201	0.0447566	-0.010685025	0.0108187925	0.0040116464	0.05167668	0.007064139	0.036386363	-0.0381577	0.026596181	-0.00078602915	0.017719029	-0.016868649	-0.015398012	-0.009063438	0.006995257	-0.033183366	-0.0284519	-0.026248604	-0.00872516	-0.008666347	-0.04482968	0.018937582	-0.035746574	-0.04577466	-0.024723468	-0.009938654	-0.023860082	0.040671777	-0.021727217	0.025689695	-0.00041195637	-0.016625287	-0.037787	-0.024159016	-0.024611615	0.019008499	0.04353572	0.014094769	-0.027869135	-0.042443704	0.028593482	0.019081095	-0.021567015	0.04901128	-0.0066529876	0.0127048055	0.023178969	0.0074092657	-0.00097815	0.05424833	0.016835604	0.009368243	0.05502965	-0.006883025	0.007845433	-0.009490693	-0.058584552	0.009822794	-0.008124754	0.064876154	-0.014933724	-0.028371828	0.021783434	0.054289326	-0.0060832757	0.048254363	-0.020993862	0.022206942	0.05317866	0.023021672	-0.024910962	0.037046432	0.019559521	-0.0059404536	-0.011364085	-0.019561753	0.030337965	0.027415534	0.02379672	0.06892041	0.018637728	-0.04292213	0.03991667	0.038124073	0.04609855	0.009033874	0.008496232	0.043790214	0.009537859	0.014057574	-0.0032104603	0.027645018	-0.0043927752	0.03824185	-0.005301608	-0.03340979	0.0503832	0.03741462	0.029753223	0.039041527	0.00854109	0.044394393	-0.017742421	-0.020681605	0.09585325	0.053845968	-0.026518073	0.027802035	0.07683425	0.04258565	-0.004766636	-0.04413939	-0.015947215	0.0073642093	0.0676442	0.03265951	-0.03697349	0.002939901	-0.03915619	-0.028388806	-0.010289576	-0.037395347	-0.0030212929	-0.01808535	0.010088297	0.0032918707	-0.0062668356	-0.007257806	-0.01767686	-0.049453933	0.018378852	0.027581915	-0.020252947	0.043024547	0.0023402155	0.009397492	0.054212607	0.049966197	-0.020484855	-0.024197308	-0.015197041	-0.016396826	0.008154042	-0.020656869	-0.040841017	0.036402155	-0.02010752	-0.00053227297	0.055447634	0.004346515	-0.039300542	-0.011148041	-0.0107461475	0.002712073	-0.025637768	0.016881058	0.02319007	0.01497002	0.038775053	0.04159567	0.04074096	-0.0418057	0.004880219	-0.0021537622	0.03895957	0.012358091	-0.024892095	0.037482277	0.03061901	-0.031460032	0.006751813	0.020397412	-0.023415472	0.051838104	0.0030415896	-0.015954606	-0.008318154	0.012207202	-0.033001397	0.04293211	0.023746068	-0.036306225	-0.02956484	-0.03184616	-0.027921226	-0.03458842	0.04210595	-0.041179873	-0.048440345	0.044134967	-0.04991317	0.017489806	-0.04336253	-0.008862822	-0.04947688	-0.021114487	-0.012266539	-0.0021767437	0.03095867	-0.033406913	-0.034974325	-0.042706862	0.030085271	0.015408408	-0.03223642	0.0010913286	0.05427185	-0.061516162	0.017874736	0.019494787	0.032085642	-0.0108804945	0.040671036	0.026738917	0.042359497	-0.035636198	-0.013777674	0.018707199	0.06411158	0.00034872728	-0.016761348	-0.032085277	-0.018977113	-0.006380584	0.027693463	-0.04819093	-0.02677952	-0.054962467	-0.059782196	0.031769555	0.035502248	0.0028443949	-0.049313724	0.045276146	0.041440707	0.016245445	-0.056657124	0.05612604	-0.01344416	-0.021102207	0.0028659874	0.03485068	0.037173625	0.024845386	-0.008473577	-0.0053321104	0.060099304	0.003385191	0.005404606	0.045450076	0.021230457	0.018063981	-0.037030235	0.036826048	-0.017140126	-0.028216852	0.035211693	0.05203953	-0.0046022045	-0.01376084	0.007904087	0.0050348723	0.03713971	0.005747513	0.029319765	-0.024195049	-0.028449114	0.042465188	0.0016239728	0.01636466	-0.04279823	0.008005939	-0.01437415	-0.0011996861	0.03484192	0.0031734055	0.03321942	-0.014867214	-0.015853234	0.04726456	0.013674204	-0.014264702	0.016859334	-0.028106347	0.020133778	-0.029270012	0.055550948	-0.0005562969	0.059606154	-0.027997011	0.010901169	-0.012930463	0.043148953	0.028875602	0.00286163	0.022733599	0.013714034	-0.034991607	-0.019485945	-0.03234458	-0.0139929755	-0.0058617396	-0.006592648	0.01918309	-0.03230967	-0.05280054	-0.051899437	0.021194546	0.02478335	0.020137655	-0.018819835	-0.014261927	0.03910176	0.0016738328	0.010877485	-0.03456	0.044380497	-0.026702879	0.049861938	0.0038670348	-0.0034609097	-0.026894787	-0.0015095366	-0.04626893	0.03351637	-0.05388716	-0.0020763623	0.04679454	0.009288545	0.052294686	0.019204093	-0.024818728	0.025480535	-0.022679472	0.053952023	0.0018053416	-0.02699547	-0.03311816	-0.02257426	0.012195332	-0.019513609	0.031778574	-0.04633005	-0.020528536	-0.045566972	0.0028671818	0.06619786	0.0379928	0.027766557	-0.019571574	-0.008635377	0.013127841	-0.037556045	-0.006179142	0.014005364	0.009706198	-0.028349314	-0.003652943	-0.008617718	-0.023439795	-0.023868425	-0.055431124	-0.034519777	-0.026356667	0.027026912	0.00811237	0.054063834	-0.04247171	0.013945902	0.022937015	0.03248741	-0.03758511	-0.010153652	0.04637185	0.016673874	-0.0024962835	0.010938716	-0.03097966	0.01630205	0.016413644	0.030054409	0.02264667	0.023190271	0.010345683	0.009140586	-0.0108155655	-0.021550613	0.020053823	0.011040514	-0.009590444	-0.021892386	-0.0060942434	-0.037684213	-0.0041293064	0.051457442	0.0061816135	-0.017806936	-0.0088533275	0.046140037	0.025993211	0.009621437	0.0016732793	-0.03435006	0.053244527	0.034268543	-0.0325085	0.029905653	-0.008536973	0.028912848	0.016450547	-0.0011006218	-0.0031129832	0.023432754	0.047200803	0.0070177615	-0.0075267474	0.019008825	0.036556434	0.036782794	0.046340305	0.051065367	-0.00020957943	0.010506505	0.0161968	0.04708202	0.03354497	0.039992813	-0.0022394836	-0.037607875	0.04095738	-0.0017427255	-0.012704585	0.032172456	-0.049443968	0.035579816	-0.03200813	-0.047916483	0.045919724	-0.001342733	0.03125756	0.021769457	0.031473454	-0.02629845	-0.053821508	0.015575734	0.03289334	-0.006730624	0.03936732	-0.05429433	-0.045850344	-0.037181213	-0.035895206	-0.032451354	-0.018659936	0.027429925	0.028035287	0.024508923	0.006703576	0.03698202	-0.06614959	-0.060507443	0.025319362	-0.027694333	0.0036592574	0.041343525	-0.007160196	-0.015891824	0.032087453	0.019763637	-0.0064753373	-0.040414028	-0.05288808	0.017319024	0.03944427	0.0536615	-0.00011283043	0.01908152	-0.038611297	0.008358358	-0.024457669	0.011383772	-0.031781465	-0.042191774	0.007189031	0.05260772	0.0071796514	-0.0296923	-0.023707135	-0.011995497	-0.015005645	0.044208217	0.02288998	0.0060086483	-0.040005054	0.01722967	0.020135414	-0.0065634325	0.042667028	-0.00036445435	-0.022132507	0.025794214	-0.038940348	-0.022354767	-0.044252798	0.04723116	-0.038726456	0.00522661	0.045458786	0.041690074	0.02199364	-0.03580821	-0.025380837	0.05225781	-0.025165545	-0.062174886	0.029250039	0.06956079	-0.035397325	-0.017510336	-0.049770694	0.014959011	0.0015390106	-0.045282163	-0.036197007	0.0009383815	0.04283622	-0.009655959	-0.053731784	0.03075004	0.010118978	-0.04051043	-0.022915818	0.012236747	0.013519392	0.041953485	0.019999739	-0.053076055	-0.0056509716	-0.0077337017	0.0053535597	-0.03560418	-0.03397133	0.060242288	0.011766968	-0.032528777	0.020985886	-0.018421268	-0.0105816405	0.0074671092	2.6266503e-05	0.022515694	-0.030805377	0.01143751	-0.054570224	-0.028565368	-0.0043742657	0.023308888	0.032153077	-0.022879802	0.029986585	0.023181723	-0.041440118	-0.044662915	0.044413466	-0.033414587	-0.012664321	-0.051176738	-0.013534598	0.04477054	0.044652905	-0.038004603	-0.006034441	-0.011782242	0.012542932	-0.039013036	-0.0093485275	0.046411272	-0.031691734	0.027735235	0.0074378084	-0.0076771104	1.725197e-05	-0.0033671989	-0.0037531666	-0.050221026	0.012947219	0.05934175	-0.024973586	0.02588529	-0.041976012	-0.031340864	-0.022057155	-0.037283815	0.030222762	-0.042192593	-0.040350005	-0.03679768	-0.0126315635	0.02352027	0.013650264	0.03757214	0.02086344	-0.019182304	0.045212597	0.04908278	0.038871244	0.026214093	0.0061537237	0.03737974	0.048688933	0.031892657	0.023830894	-0.012158918	0.005621786	-0.034135897	0.024563855	0.016918007	0.031492863	0.012133574	0.016121566	0.05925639	0.01445175	0.016029388	0.0077592153	-0.05598993	-0.0459938	0.0034280496	-0.035534345	-0.048256047	-0.02948782	0.058129855	0.016632972	-0.06369867	-0.046060618	0.05986591	-0.0012404866	-0.0064432896	0.018956436	-0.019987613	-0.028422834	0.001854383	-0.053316515	0.022267833	-0.045833685	-0.038147356	0.011714893	-0.05376701	0.026987022	0.025609497	-0.01572536	0.010124683	0.016932534	-0.03363658	-0.03288603	0.02409156	0.036525846	-0.015749946	0.013837916	0.05247846	0.025288852	0.054444484	0.013154437	0.0074022566	0.014906338	0.046827488	0.006189629	0.049286123	0.05082792	0.0042386698	0.040193047	-0.028003724	-0.021862961	-0.043579783	0.029313937	0.021966515	-0.0035285964	0.0049445922	-0.047479775	-0.057276703	0.00070911174	-0.036886737	0.044164922	0.038673274	-0.015121261	-0.0009993524	0.022553328	0.0018522028	0.05003775	-0.012968688	0.02432203	0.0021936614	0.0037664298	-0.028045747	0.0034460013	-0.006858243	-0.0027328408	-0.016252412	0.044890705	-0.053930134	0.024310077	0.01320467	0.01971814	0.036701832	-0.024178324	-0.046918776	-0.015580199	0.028887995	-0.029493218	0.013457026	0.034808163	0.042426754	-0.009021289	-0.04159365	0.03659438	-0.046938054	0.019041615	0.013791513	-0.023927927	-0.020282377	0.016530376	-0.04842085	0.0061712856	-0.048567943	0.020159049	-0.0074931113	0.041910596	0.006911107	0.009532353	0.040346026	0.024213463	0.0005527186	-0.017909048	0.015905753	0.055269398	0.015474472	0.029403836	-0.004028686	0.039388623	0.050111283	0.008442686	0.01688547	-0.033099104	-0.0326189	0.013348127	-0.0009932575	0.02025715	-0.047801703	-0.04624706	-0.020699251	-0.033501696	0.019400863	0.0419975	0.011013107	0.0033925888	-0.028437553	0.022094306	0.00759049	-0.025930416	-0.030799983	0.0077054217	-0.006607263	0.034322698	0.03183612	-0.03868343	0.04033828	0.04324016	0.0031909256	-0.0069351406	0.0050514108	-0.034746848	-0.00047968572	0.0263538	0.033692807	-0.021495752	-0.019750666	-0.022503316	-0.012197755	-0.024491414	-0.024499208	0.027527077	0.024366522	-0.038257517	-0.024167929	-0.044099834	-0.013814099	-0.0011398393	0.045876026	0.01599068	0.004370451	0.030479133	0.011096549	-0.030252313	0.04795462	-0.048886426	-0.018828833	0.030936824	-0.0438885	0.015951846	0.0059995498	-0.0219266	-0.0045996746	-0.039943047	0.03518852	0.042828467	-0.0033719451	-0.057890747	0.056520574	0.032457195	-0.017966218	-0.03137338	-0.055676606	-0.036586653	-0.03759128	0.012582973	-0.028869588	0.0068421178	-0.031002628	0.049999095	0.017807338	-0.041981358	0.036827955	0.021884555	-0.005376161	0.023442307	-0.03275769	0.003387843	-0.0012279743	-0.031018436	0.028974311	0.0011757623	0.013279271	-0.016947268	0.04371664	-0.005968183	-0.0050088493	0.0012668371	0.044238012	0.012465504	0.028690225	0.044015225	-0.0062335352	-0.010521678	0.009265588	0.019296635	0.025871273	-0.023196887	-0.042384125	-0.053499486	-0.024096888	0.018095085	0.02626896	-0.027814487	-0.027608793	0.014430495	0.05093463	-0.017531952	0.026230307	-0.05666701	0.0054395306	-0.012515709	-0.024691254	0.01028346	-0.03503082	-0.0022891185	-0.042491533	-0.00010544415	0.0151716	0.00062749436	0.001571808	0.025262777	-0.045529414	-0.047717094	-0.004649341	-0.04436199	-0.010298339	0.0069955764	0.040649157	-0.03214396	0.026220888	0.016628271	0.03196733	-0.050251506	-0.029383153	0.034887593	-0.025379553	0.04778733	-0.03277261	0.04228918	0.0020222294	0.0019305544	0.010253301	-0.019410454	-0.038611576	0.04217648	-0.041240096	-0.016803896	-0.007690761	-0.04600991	-0.02130383	0.04180986	-0.027474435	-0.042470727	0.021318741	-0.020353558	0.047124084	0.022031963	-0.0020193087	0.042567488	-0.00807961	0.047443457	0.021232665	-0.016060013	-0.041531317	0.03157863	0.01966821	-0.020144848	-0.036184814	0.013500704	0.03725766	-0.0056429277	-0.029205244	-0.053388402	-0.049091425	-0.018593539	-0.008245355	0.042594858	0.03914291	-0.044042252	-0.036393717	0.0460456	0.026926681	0.023667464	-0.011228572	0.02033667	-0.024508873	0.052263048	0.026808657	-0.03209098	-0.037913024	-0.04514275	0.0403274	0.042186666	0.018012587	-0.04539106	-0.0035739213	-0.04995948	0.0037750711	-0.036171794	-0.027844356	-0.014737948	0.059380006	0.032474585	-0.019323874	-0.00038874394	-0.048216853	-0.008708544	-0.018069709	-0.024287045	0.0038914327	-0.012667308	-0.014692	-0.021739569	0.039317805	0.047262914	0.03543668	0.034599915	0.07622958	0.044889178	0.022481222	-0.020592706	0.0063587455	0.041975133	0.010400832	-0.008482801	0.02696163	-0.005549835	0.042744137	-0.038711023	-0.014516046	0.014948489	-0.03546273	-0.010504648	-0.028616058	0.047996696	0.031418733	0.054331064	0.048068848	0.01260158	0.02080637	0.005703903	0.039656565	-0.039303284	0.015740855	-0.041231908	0.06781514	-0.021358972	0.04578274	-0.0077769975	-0.020910297	-0.016845306	-0.0374374	-0.03482806	0.014419285	0.003921571	0.029451378	-0.0049164207	-0.060493354	0.021642668	0.053458698	-0.013774001	-0.041163057	0.039757658	0.058659963	0.01296839	0.0016337152	0.010525768	0.024185067	0.02572363	0.043762557	-0.018371142	0.019045215	-0.0001986091	0.0036362414	0.022921342	0.0010725843	0.033350725	-0.00032045666	0.0009981613	0.017498609	-0.0197408	-0.03841673	-0.0031076965	0.06186571	0.04603394	0.012888463	0.06445285	0.017346807	-0.05299961	0.01745418	0.049739536	-0.022499045	0.06323682	0.003405569	-0.021809157	0.006946304	-0.040635217	0.026720583	-0.03905902	-0.018193204	0.040009778	0.003620697	0.052976683	0.0073131504	0.024938036	0.0027973156	-0.015163562	-0.050226502	0.059670992	0.013603856	-0.015836395	-0.011619139	0.048246223	-0.032454602	0.047399193	0.06695777	0.04337763	0.06388138	-0.045708247	-0.034776755	0.03047642	-0.013185448	0.001697532	-0.012344682	0.01662987	0.062082417	-0.008078446	0.062926136	-0.056119	0.014063483	0.010087211	-0.014235807	0.043336544	0.008663073	-0.030721359	-0.061074894	-0.05305886	0.015351774	-0.00086090976	0.055723555	0.045560732	0.037595887	0.08347068	0.043703847	-0.023836937	0.00078328664	0.06109356	0.0033707733	-0.019277323	-0.025805019	0.046387866	-0.019683441	-0.028367816	0.021232506	0.0025681006	-0.041507285	-0.043010376	0.008865505	-0.023698416	0.05072224	0.047668673	0.0044492325	-0.00835365	0.04648708	-0.0073761707	-0.0038141073	-0.018188234	0.04433146	-0.0114396615	-0.012153096	-0.0033207242	0.041825887	0.030328581	-0.0116800545	-0.0003122901	-0.023741484	0.034405444	-0.008862424	-0.031881995	-0.06099625	0.019665256	0.05138313	0.06355054	0.051481616	-0.05791473	-0.020691203	-0.0080626635	-0.022896811	0.0033129365	-0.01917333	-0.015396213	0.0077661895	-0.051662646	-0.041217104	-0.028041184	-0.032360304	0.020173306	-0.024013137	-0.019224828	-0.02913391	-0.010948936	-0.016876435	-0.012298699	-0.009197177	0.02612365	-0.0035192259	0.04707383	-0.026155924	0.004913817	0.03814442	-0.00014342222	0.009854566	-0.025091415	-0.040103257	0.0044939853	0.025065066	0.033529222	-0.026630929	0.04715047	-0.019652704	-0.0018117276	-0.005972247	-0.005697661	0.012436017	-0.012659924	0.0012296792	-0.03944688	-0.04935364	0.036475413	0.027595505	-0.0039027436	0.012583803	0.017983995	-0.043950617	0.028511107	0.033734318	-0.017523276	0.010026531	-0.02257047	0.010780423	-0.0137667665	-0.026949639	0.02875207	-0.035782047	-0.052139945	-0.022494229	-0.020993154	-0.024376726	0.013816085	0.052930847	-0.01753421	0.018464286	0.010716423	0.030302629	-0.05931852	0.051740833	-0.025919978	0.043306768	0.025111109	-0.008962474	0.009922601	0.03240456	0.055684533	-0.0014650972	-0.052420925	-0.022408344	-0.07172908	-0.029370807	0.010167871	-0.042266525	-0.03449199	0.011536958	-0.021003503	0.011553718	0.026534226	-0.030659487	-0.036016352	-0.0584358	0.016584028	-0.010272638	0.014615694	-0.004856138	-0.0050400486	0.03375126	-0.0017739384	0.00092496123	-0.022020945	-0.0033147614	-0.014679863	0.054106656	-0.004997331	0.058958568	0.050651357	0.010150456	-0.017303867	-0.045386873	-0.06518664	0.015018688	-0.019714067	-0.0028795989	-0.040000115	-0.04169033	-0.007341239	0.012293415	-0.0337004	-0.05124998	-0.010305252	0.015664052	-0.046802096	-0.020318942	0.028549422	0.006723223	-0.0020525851	-0.042096198	0.010971361	-0.008988452	-0.005759605	-0.03548299	-0.038200084	0.01841334	0.02344377	0.046107773	0.02600993	-0.060656954	-0.042188372	0.008558633	0.011821739	-0.021497207	-0.012701263	-0.07005047	-0.039695524	0.041795976	-0.014581531	-0.021977147	-0.021607742	-0.03742456	-0.044941362	-0.009576161	0.044092126	0.0589951	0.05536302	0.039452065	0.05179103	0.051955774	0.045831777	0.03534201	-0.01376281	-0.03136449	-0.0030574962	0.010989468	-0.011971445	-0.044443272	0.0030330478	0.0059268023	-0.03453159	-0.023387494	0.00546126	-0.040943697	0.07330509	-0.0004120926	0.040359687	0.04193709	0.042110234	0.04578328	0.07673131	0.047873054	-0.057585202	0.0060204733	-0.03143973	0.0045695854	0.03415384	-0.051469147	-0.01388534	-0.02300485	0.030438231	0.04579269	0.05484107	-0.005652758	-0.03811346	-0.063574106	-0.033653468	-0.023791699	-0.049561556	0.021339605	-0.018839363	-0.010237308	-0.047654692	-0.032370623	-0.027871354	0.06075959	0.05153642	-0.003111471	0.05802099	0.03840966	0.05630075	0.043885436	-0.008103389	0.011737189	-0.003125146	-0.03839203	-0.010633999	-0.012651826	0.040963013	0.0007625471	-0.029742286	-0.030715555	-0.032430187	-0.03824382	0.046528224	0.036914423	0.004246519	0.044333354	0.00459168	0.04819069	0.05713079	0.025681458	-0.0573455	-0.056106757	0.0047195433	0.012954602	0.026497679	0.013421717	-0.0050136177	0.020227902	0.03824917	0.048137955	-0.04502248	-0.025286289	0.034721356	-0.04087144	-0.06309658	0.05336052	0.05888492	-0.00021826653	-0.04035716	0.022313649	-0.049044468	0.03142495	0.03762923	-0.0429779	0.026421938	0.017462	-0.032805316	-0.020768583	-0.04997422	-0.016559785	0.011571877	0.010065005	-0.030030638	-0.023133844	-0.0037271709	-0.03716655	-0.023577152	0.03569418	0.032146785	-0.018885965	0.038721155	-0.062316038	-0.062761895	-0.069212295	0.012608921	-0.03406882	0.030577933	0.006438493	-0.0751769	-0.0295608	0.04141618	0.045200735	-0.033762783	0.0030189313	0.020982701	0.0015641163	0.0029670955	-0.012766089	0.018311488	0.06539543	0.03162777	-0.02530765	0.011429581	0.028644377	0.04826866	-0.00077676517	0.053556267	-0.0038065296	-0.00744523	0.010198543	0.027136343	0.04049156	0.008813338	-0.055760376	0.01989093	-0.050811622	-0.031181268	0.02539018	0.054602522	0.03804186	0.028141143	-0.05306722	-0.015796266	-0.001140925	-0.014011271	0.016190462	0.06473064	-0.029311752	-0.012784709	0.011104703	0.0034826465	0.037340086	-0.030624667	0.013320886	-0.0040974948	-0.023403188	0.037773624	0.023736963	0.0092667	0.004809595	0.033848327	0.029860009	0.024974655	0.036834113	-0.01631771	-0.010889613	-0.008959652	0.019145554	0.048387088	-0.0229343	0.031736266	-0.009711311	-0.040092416	-0.033901334	-0.00399	-0.028829452	-0.009467913	-0.033592533	0.036886115	0.017668061	-0.01966372	-0.028124925	-0.029408662	-0.015387248	-0.032829415	-0.002648662	-0.029531436	0.05039838	0.029042322	-0.0074957055	-0.014407431	0.026260154	0.024992913	0.001761732	0.016208595	0.053855453	0.02359626	0.01165446	0.006287	-0.023788208	0.04817933	-0.029081695	0.0035607384	0.0021571994	0.019654665	-0.040996417	0.0043935375	0.037278417	0.047322735	0.043429907	0.026095478	0.008160516	0.043089584	-0.0023389272	0.033703156	0.018057788	0.00677124	-0.050582163	-0.021849127	-0.0023126798	0.017777642	0.043291654	-0.04582229	0.018118696	-0.011615875	-0.052955154	0.03307666	0.011017687	0.03207183	-0.020750506	0.086788565	0.04463963	-0.029109193	0.054866586	-0.019286105	0.0037567888	0.04057641	0.017270774	0.015115432	0.0028658041	-0.058696356	-0.045404576	-0.028495306	-0.042771693	-0.016151853	-0.010148317	0.051306065	0.0072979536	-0.0046168556	0.052211553	0.0071018445	0.03597497	0.0030342215	0.026820365	0.015352023	-0.04567661	0.0032774906	0.014744185	0.008354302	-0.033195745	0.03523014	0.040132876	0.013451291	0.037358273	-0.009741763	0.035659704	-0.03472807	-0.034811858	-0.037178617	-0.010202949	0.005997943	-0.0082698185	-0.03988371	-0.036730323	-0.004543441	-0.058558077	-0.006355163	0.021258418	-0.032181434	-0.01309068	-0.041305028	-0.044249937	-0.012833367	-0.0059670755	-0.023463188	-0.031229664	-0.022841139	-0.0153971175	0.031420615	0.0059708394	0.024905836	0.012466046	-0.039693996	-0.06413171	-0.042669617	-0.08249858	-0.033051092	-0.021496462	-0.0155760115	-0.0024242825	-0.0068573495	0.006222251	-0.00800264	0.072476126	0.0067994674	0.041617673	0.035593785	-0.0074921586	-0.055056795	0.00036887245	-0.016774181	-0.03112605	0.021408763	-0.025648236	-0.009702524	-0.024658801	0.04910017	-0.0019193484	-0.01124228	0.036727436	-0.029268892	-0.0461095	0.022216307	0.021998132	0.00060773763	0.011480295	0.023004327	0.035570186	-0.038001448	0.00031979784	-0.034550074	-0.035837866	0.045255214	-0.00995852	-0.0017399646	-0.03133768	-0.014343403	-0.045749143	-0.0146923065	-0.002014902	0.05024118	-0.026220456	-0.024445549	-0.012672285	0.026617173	0.02792334	0.005704931	-0.021494005	0.052619446	0.037096467	0.07459707	0.034961425	0.03932817	0.029886968	-0.04174141	0.024024086	-0.015959624	0.02538812	-0.055392195	0.005706786	-0.037520777	-0.034631733	0.004323757	-0.014641218	-0.030183408	0.009597166	-0.053095303	-0.019957732	-0.020033456	-0.017410072	-0.008399502	0.05389749	0.017904691	0.04281994	0.024266515	-0.010575887	0.004894819	-0.016672464	0.015982758	0.035970632	0.047489416	0.02637359	-0.037369724	0.025796285	0.024210468	0.013554589	0.020803038	0.0125571275	0.027284909	0.006351924	-0.040131874	-0.033738382	-0.0021390014	-0.04612401	-0.037274644	-0.022121392	0.03462527	-0.041182954	-0.02169389	0.08376775	0.042197663	0.07016521	-0.027556574	0.006294208	0.010528598	-0.029945571	-0.0024089273	-0.008395787	-0.050925076	-0.023131097	0.025570689	-0.04596364	0.007841056	0.035171386	-0.0270907	0.039709978	0.03186498	-0.033296157	-0.01054285	0.059690468	0.015241596	0.007777568	-0.055691883	-0.0014701127	0.06554433	0.013003797	0.05596522	-0.02756511	0.015015397	0.023748452	0.014725624	-0.010888722	-0.0032741567	0.0046649715	0.021501021	-0.019870779	-0.036043752	-0.004025831	0.019988017	-0.04446351	-0.04348372	-0.046129715	-0.0474536	-0.022386454	-0.022309124	0.010052704	-0.04862552	0.01997798	-0.00743891	-0.022968864	-0.026627006	0.02207779	0.007669117	-0.002537317	-0.028771529	0.04193145	-0.003096047	0.048094276	0.023482256	0.005651313	0.016137207	0.019074677	-0.046231806	0.042607237	-0.029614206	-0.01288266	0.04509587	-0.024016226	0.04232358	0.04332206	-0.028929546	0.008990521	-0.028136708	0.010287646	0.016409606	0.007572099	0.023251118	-0.01030723	-0.034990627	0.036287677	-0.010517667	-0.013552291	-0.023998829	-0.0010548257	0.032961655	0.022690177	-0.02975969	-0.014238023	-0.002713537	-0.0001222687	0.009728368	0.04320945	0.014400833	0.022970047	-0.011695822	0.032632552	-0.0404218	0.031517107	-0.010723782	0.031178609	0.027333349	-0.01893835	-0.014557492	0.0033956359	0.00419493	0.027250255	0.04326313	-0.03425524	-0.010104634	-0.01139748	-0.00231504	0.0068501253	0.005753507	-0.05456557	0.038968664	-0.012137381	0.038125698	0.05306173	0.01290819	0.024420505	0.05005307	-0.059163168	0.001138348	-0.033952765	0.05474801	0.023122545	0.015309873	-0.09110525	0.02841307	-0.018126337	-0.02979287	-0.040962134	-0.028517663	-0.04640845	-0.039088428	0.031746395	0.016650531	-0.052624904	-0.0062685004	0.05373083	0.014706359	-0.039245415	0.009527184	-0.020747887	-0.01993587	0.052217968	0.04104843	-0.056443635	-0.017061032	0.034742273	0.024663553	0.041698735	0.023056105	-0.009758138	0.015561503	-0.018100187	0.042971294	-0.019422641	0.02896988	0.021999089	-0.04333941	0.038499285	0.048049506	-0.021798179	0.05438304	-0.008364268	0.03536489	0.0025212439	-0.024518969	-0.024677815	0.026145771	-0.033975024	-0.06062039	-0.02510603	-0.046072286	0.013890521	-0.00096938695	-0.015001392	0.022061093	-0.02248477	-0.06167135	-0.021666516	-0.034185782	0.01789036	-0.0137574095	-0.057473022	0.038734205	0.0070889285	0.0360597	0.061292257	0.018938284	-0.031960018	-0.052139908	0.05352107	0.024590334	0.02726186	-0.004399177	0.01380714	-0.029626224	0.0069733937	0.056854565	-0.017012052	-0.008779959	-0.059786472	0.052147474	0.011257114	-0.024987211	0.012853314	0.015579679	0.003025344	-0.027074415	0.0013387274	0.04044633	0.028132066	-0.045391485	0.044200756	0.032196388	-0.000120638186	-0.034125328	-0.014399718	0.05382937	-0.016184626	0.013855278	-0.07185133	0.039619926	-0.01804194	-0.015539796	0.009250092	-0.06259249	-0.051272843	0.014320623	0.034416616	-0.025686739	0.0242088	-0.03928328	-0.031023394	-0.011479113	-0.042629898	-0.023033597	0.024395963	0.0025188893	0.022503767	-0.03259528	0.01793733	0.012755391	0.017755145	-0.032919176	0.0192443	0.021820901	-0.0354493	-0.014090112	-0.0035456242	-0.051789206	0.038136706	0.042539652	-0.0070845485	0.03336182	-0.04162482	-0.020285048	0.0021908171	0.0058725798	0.03136926	0.03753934	0.03697534	-0.04563061	0.03344315	-0.047801584	-0.0028081406	-0.016590608	0.005444127	-0